the -0.038194 -0.24487 0.72812 -0.39961 0.083172 0.043953 -0.39141 0.3344 -0.57545 0.087459 0.28787 -0.06731 0.30906 -0.26384 -0.13231 -0.20757 0.33395 -0.33848 -0.31743 -0.48336 0.1464 -0.37304 0.34577 0.052041 0.44946 -0.46971 0.02628 -0.54155 -0.15518 -0.14107 -0.039722 0.28277 0.14393 0.23464 -0.31021 0.086173 0.20397 0.52624 0.17164 -0.082378 -0.71787 -0.41531 0.20335 -0.12763 0.41367 0.55187 0.57908 -0.33477 -0.36559 -0.54857 -0.062892 0.26584 0.30205 0.99775 -0.80481 -3.0243 0.01254 -0.36942 2.2167 0.72201 -0.24978 0.92136 0.034514 0.46745 1.1079 -0.19358 -0.074575 0.23353 -0.052062 -0.22044 0.057162 -0.15806 -0.30798 -0.41625 0.37972 0.15006 -0.53212 -0.2055 -1.2526 0.071624 0.70565 0.49744 -0.42063 0.26148 -1.538 -0.30223 -0.073438 -0.28312 0.37104 -0.25217 0.016215 -0.017099 -0.38984 0.87424 -0.72569 -0.51058 -0.52028 -0.1459 0.8278 0.27062
was 0.13717 -0.54287 0.19419 -0.29953 0.17545 0.084672 0.67752 0.098295 -0.035611 0.21334 0.51663 0.20687 0.44082 -0.33655 0.56025 -0.6879 0.51957 -0.21258 -0.52708 -0.12249 0.33099 0.026448 0.59007 0.0065469 0.45405 -0.33884 -0.28261 -0.24633 0.10847 0.3164 -0.15368 0.73503 0.11858 0.70842 0.075081 0.29738 -0.11395 0.40807 -0.042531 -0.21301 -0.79849 -0.12703 0.752 -0.41746 0.46615 -0.039097 0.65961 -0.32336 0.442 -0.94137 -0.23125 -0.30604 0.79912 1.4581 -0.88199 -3.0041 -0.75243 -0.20503 1.1998 0.94881 0.30649 0.48411 -0.7572 0.65856 0.70107 -0.93141 0.52928 0.23323 0.18857 0.38691 0.011489 -0.31937 0.011858 0.22944 0.17764 0.16868 0.14003 0.58647 -1.5447 -0.064425 -0.00064711 0.13606 -0.32695 0.10043 -1.546 -0.5476 0.21027 -0.67195 -0.1597 -0.68271 -0.22043 -0.87088 -0.16248 0.83086 -0.23045 0.19864 -0.051892 -0.52057 0.25434 -0.23759
by -0.20875 -0.1174 0.26478 -0.28339 0.19584 0.7446 -0.03887 0.028499 -0.44252 -0.30426 0.27133 -0.51907 0.52183 -0.76648 0.28043 -0.48344 -0.15626 -0.49705 -0.51024 -0.03652 0.20579 -0.6136 0.46388 0.73497 0.66813 -0.4443 -0.17603 -0.5478 -0.013521 0.16333 0.28148 0.054223 -0.19906 -0.1907 -0.43179 0.14781 0.27555 0.18571 -0.40776 -0.15415 -0.5885 -0.0085281 -0.14178 0.7061 0.54031 -0.43305 0.17497 -0.46208 -0.31372 -0.34039 -0.25128 0.68228 0.33576 1.5862 -0.39427 -2.9938 -0.29773 0.04213 1.9075 -0.072628 -0.092191 0.66133 0.13868 0.78774 0.69307 -0.22185 0.71705 1.1453 1.2153 0.14196 -0.79914 0.16965 -0.34532 -0.51742 -0.15648 0.18757 0.1694 -0.0082713 -1.4511 0.061983 1.1019 0.084411 -0.34148 0.49994 -1.1106 -0.13759 0.15377 -0.061006 -0.53826 -0.78941 -0.12566 -0.57381 -0.73484 0.54774 -0.28455 -0.24348 -0.27511 -0.33267 0.27878 -0.8705
has 0.093736 0.56152 0.48364 -0.45987 0.56067 -0.1694 0.018687 0.45529 0.065615 0.25181 -0.14251 0.10532 0.77865 0.1428 -0.08114 -0.069555 0.32433 0.019611 -0.15608 0.22235 0.35559 0.14713 0.19156 0.2803 0.27691 -0.2067 -0.11378 -0.48318 -0.64248 -0.35523 0.21939 1.2533 -0.21164 0.91811 0.31986 0.48367 0.15322 0.56109 -0.60692 -0.028075 -0.92199 -0.25583 0.66362 -0.49082 0.34757 -0.048103 0.57283 -0.62332 0.87508 -0.50079 -0.12316 -0.69096 0.10129 1.516 -0.174 -2.8902 -0.24541 -0.17934 1.1001 1.4198 0.49132 0.30282 0.077149 -0.097834 0.90586 -0.1615 0.55681 0.32817 0.49335 0.044815 0.57458 -0.32663 -0.29745 0.001807 0.24382 -0.51915 -0.14392 0.27921 -1.5964 0.37152 0.81129 -0.13488 -0.36534 -0.022346 -1.5091 -0.38727 0.30063 -0.37562 -0.18582 -0.39748 -0.10719 -0.12265 -0.66462 0.12112 -0.37281 0.60048 -0.42683 -0.81305 0.62397 0.73176
case 0.41052 0.058649 0.28515 -0.099504 0.076813 0.15387 0.36206 -0.10112 0.093865 -0.23309 -0.13663 0.54577 0.0138 0.38415 -0.39695 0.16228 0.099602 0.24988 -0.33659 0.039019 0.33905 -0.66241 0.37472 0.21631 0.16886 0.18165 0.55425 -0.6101 -0.85227 0.36984 0.6891 0.45316 0.082091 0.10839 -0.24239 0.15888 0.11656 -0.060652 0.57618 -0.3042 -0.65261 -0.38063 0.58332 -1.0504 -0.095388 0.014547 0.59942 -0.55361 0.17132 -0.69451 0.99215 -0.39131 0.31876 1.1508 -0.57279 -1.8148 -0.39404 -0.5783 1.9226 0.59717 -0.76435 0.59466 0.28298 -0.25469 1.4569 -0.41196 0.43957 0.74745 -0.67474 0.43792 -0.0045149 -0.03932 -0.03232 0.18805 0.73553 0.14875 -0.066224 -0.56274 -0.92785 0.22184 0.81973 0.0065571 -0.046961 -0.31358 -1.5983 -0.52369 -0.016562 0.094486 -0.15641 -0.66476 -0.14292 -0.47557 -0.44785 0.10048 1.1182 0.54136 -0.030505 -0.37898 0.33021 -0.27462
director 0.26554 -0.78286 -0.088447 -1.0131 0.99533 -0.94081 -0.3687 0.33595 -0.66131 0.01866 -0.10583 -0.50757 0.43957 0.11668 0.0068358 -0.16246 0.83221 -0.029842 -0.58107 0.59797 -0.34653 0.33801 0.083349 -0.33689 -0.15555 0.3037 0.36218 -0.49779 -0.1042 0.23055 -0.92252 0.60625 -0.34707 0.39155 -1.1208 -0.054766 0.091888 1.3057 0.17112 -0.47524 -0.3892 -0.061009 -0.60362 0.4849 0.82905 0.19803 -0.73324 -0.55246 -0.4693 -0.17326 0.25662 -1.0521 -0.3256 0.13647 0.12832 -2.4086 -0.28245 0.71802 0.87841 0.071353 0.53584 0.57417 0.56343 -0.12018 0.50456 -0.61081 0.49771 1.229 0.77136 1.2948 0.74913 0.16564 -0.28906 -0.50207 0.31034 -0.80094 -0.77947 0.21794 -1.0672 -0.22227 0.34507 -0.13336 -0.058961 0.21234 -1.4277 0.074573 -0.31233 -0.00053944 0.15698 -1.0382 0.98328 -0.59559 0.43997 0.55026 0.36462 0.84136 -0.0014328 -0.24872 -0.10055 0.095509
taken 0.075271 -0.15926 -0.15944 -0.021373 0.0056619 0.37426 -0.082431 0.31387 -0.31591 -0.17238 0.28115 0.54391 0.50225 0.31172 0.098804 -0.03821 0.09441 -0.083086 -0.8074 -0.09333 0.73438 -0.031029 -0.074751 0.12702 -0.59496 -0.19334 -0.085897 -0.37249 0.012493 0.086084 0.22361 0.043815 -0.31082 0.52197 -0.0006043 0.19951 -0.24273 0.25205 -0.49884 -0.13752 -0.69464 -0.18863 0.36402 -0.11632 -0.033747 0.34456 0.092301 0.010809 0.020036 -0.48661 0.24671 0.1518 0.26618 1.4805 -0.051495 -2.2127 -0.54219 -0.49872 1.5302 0.14193 -0.15752 1.0613 -0.30579 0.40024 0.67544 0.31193 -0.044931 0.15597 -0.16002 -0.025869 -0.22857 -0.40231 0.17131 -0.24695 0.26678 0.20305 -0.29128 0.10492 -0.86765 -0.061775 0.45663 -0.098667 -0.35185 -0.026337 -1.5502 -0.31708 0.50942 -0.11364 -0.60245 -0.42676 -0.44097 -0.64717 0.0758 -0.015561 -0.5422 0.27778 -0.085818 -0.13247 0.21821 0.028589
stage 0.17511 0.24707 0.026237 0.51833 -0.012006 -0.039729 0.26732 0.59756 -0.65248 0.21171 -0.035938 0.15363 -0.51062 -0.1372 0.085673 0.14826 0.048926 0.20797 0.43996 -0.27186 0.17438 -0.48451 0.25568 -0.15748 0.37798 -0.36402 0.018783 -0.019673 0.78081 -0.34503 -1.1004 -0.24861 0.29783 -0.10253 0.72871 -0.0033091 0.24415 0.032022 -0.47817 0.33924 -0.11023 0.022611 -0.089526 0.27259 0.37161 0.04842 -0.28313 -0.26623 -0.22936 -0.53629 -0.37364 -0.30661 0.15861 1.091 0.10317 -2.9627 -0.68983 0.41042 0.64077 0.6298 -0.06272 1.1888 0.19763 0.26359 0.89496 0.15681 0.18512 -0.20686 -0.65899 -0.29105 0.23026 -0.077629 -0.74269 -0.30663 -0.023167 -0.26633 -0.30741 -0.346 0.03049 -0.93851 0.28442 -0.15234 0.026057 0.41679 -1.7409 0.22116 -0.20464 0.11994 0.11417 -0.066107 -0.1794 -0.30444 0.06547 0.6605 0.1722 0.40143 -0.31136 0.086374 0.94659 0.18587
movie 0.38251 0.14821 0.60601 -0.51533 0.43992 0.061053 -0.62716 -0.025385 0.1643 -0.22101 0.14423 -0.37213 -0.21683 -0.08895 0.097904 0.6561 0.64455 0.47698 0.83849 1.6486 0.88922 -0.1181 -0.012465 -0.52082 0.77854 0.48723 -0.014991 -0.14127 -0.34747 -0.29595 0.1028 0.57191 -0.045594 0.026443 0.53816 0.32257 0.40788 -0.043599 -0.146 -0.48346 0.32036 0.55086 -0.76259 0.43269 0.61753 -0.36503 -0.60599 -0.79615 0.3929 -0.23668 -0.34719 -0.61201 0.54747 0.94812 0.20941 -2.7771 -0.6022 0.8495 1.2549 0.017893 -0.041901 2.1147 -0.026618 -0.28104 0.68124 -0.14165 0.99249 0.49879 -0.67538 0.6417 0.42303 -0.27913 0.063403 0.68909 -0.36183 0.053709 -0.16806 0.19422 -0.47073 -0.14803 -0.58986 -0.2797 0.16792 0.10568 -1.7601 0.0088254 -0.83326 -0.5836 -0.37079 -0.56591 0.20699 0.071315 0.055586 -0.29757 -0.072659 -0.25596 0.42688 0.058921 0.091112 0.47283
raised 0.28933 0.41244 -0.069092 0.099067 0.094358 -0.22061 -0.62011 -0.19199 -0.37122 0.15929 -0.5797 0.70812 0.27001 -0.07689 0.13366 -0.65804 -0.62963 0.13124 -0.36843 -0.39141 0.24204 0.017492 0.30994 0.446 -0.0026413 -0.22879 -0.7393 -0.16702 -0.42953 0.30822 0.62573 0.42757 0.52672 0.53579 -0.33629 0.4097 0.010184 0.19285 0.15239 0.3536 -0.30689 -0.81265 -0.00024513 -0.58594 0.5935 -0.55142 0.07365 -0.46767 -0.0942 -1.0989 0.25034 -0.41788 0.52493 0.68323 -0.55651 -2.0757 -0.19678 -0.82129 1.0424 0.51828 0.74084 0.63384 -0.061289 0.08702 0.40466 -0.29365 -0.34489 0.64885 0.79144 0.18314 0.65613 0.059591 -0.38893 -0.094843 -0.13905 0.37376 0.33381 -0.09112 -1.0053 0.13869 0.54499 -0.071592 0.019512 -0.14817 -0.76792 -0.68108 -0.065568 0.023143 0.022819 -0.14118 -0.63791 -0.3688 -0.15471 -0.14983 -0.69979 0.16308 -0.13816 -0.061642 0.59598 -0.19238
museum 0.28537 0.75628 -0.17795 0.11613 0.97585 -0.12008 0.21697 0.71994 -0.031774 -0.27201 0.024977 -0.33441 0.049251 0.20123 -0.54049 0.55483 1.3269 0.6578 -0.70861 0.13022 -0.1677 0.20343 -0.3317 -0.68989 0.25454 -0.72728 -0.17238 -0.3029 0.23326 -0.60742 -1.1749 -0.046057 -0.60587 1.3074 -0.37978 0.12758 -0.051791 -0.12641 -0.15013 -0.72033 0.43708 -0.95698 -0.1413 -0.11999 0.43878 0.027117 0.59021 0.24453 0.52182 0.27636 0.71995 -0.57356 0.28636 -0.15308 -0.98853 -1.7872 -0.56086 -0.66083 1.6703 0.34054 0.024841 1.3854 0.25459 0.47657 0.59289 -0.050394 0.11254 0.88479 0.14151 0.64695 0.4851 0.010365 0.025033 -0.32815 0.33235 -0.71439 1.0167 0.2442 -1.1874 0.37168 -0.50951 0.31758 0.63228 0.033917 -0.20174 0.46631 -0.48461 -0.41542 0.018823 -0.21982 0.88442 -1.0945 1.1347 -0.014952 -0.66418 -0.45428 -0.090082 -0.82059 0.86533 0.16142
paid 0.48972 0.071908 -0.37896 0.086399 -0.10055 0.092977 0.1053 0.47699 -0.35235 -0.16904 0.43375 0.18368 0.27055 -0.24673 -0.30433 -1.3044 0.41723 -0.21269 -0.14625 0.69304 0.21636 0.17801 -0.48317 0.20209 -0.27772 -0.93418 -0.5677 -0.1437 0.012806 -0.77712 0.51802 0.93665 -0.26949 -0.037064 0.18367 0.96419 -0.43765 0.60653 -0.42362 0.011978 0.21111 -0.081414 0.13594 0.085745 0.0141 -0.1938 -0.35308 -0.63511 0.4929 -0.91402 0.060482 -0.5631 0.39365 0.87617 -0.45491 -1.2042 -0.21837 -0.71497 1.8043 0.091471 0.50668 0.079691 -0.61326 -0.3933 0.36669 -0.75785 0.48222 0.82307 0.68979 -0.078578 -0.10088 -0.28893 -0.14576 0.29193 0.29951 -0.057432 0.12637 -0.010988 -0.93375 0.33447 1.1137 0.21646 0.24225 -0.9272 -1.2968 -0.32504 -0.29235 0.10591 -0.27164 -0.65261 -0.38268 -0.46857 0.23097 -0.83813 -0.59252 -0.41922 0.38412 0.47119 0.5956 -0.40218
student 0.79618 0.5678 -0.96453 -0.1981 -0.18428 0.91728 0.0092719 0.16862 -0.25747 1.1229 -0.5002 -0.17189 0.39234 0.21015 -0.31069 0.30307 -0.07859 -0.073957 -0.40416 0.45559 -0.90511 -0.21614 0.42923 -0.1103 -0.043391 -0.79576 -0.24517 -1.107 0.079045 0.43802 -0.66621 1.2244 -0.078216 0.43178 -0.57316 -0.61193 -0.20767 0.45253 -0.33195 -0.07209 -0.83251 0.019382 -0.049362 0.14225 0.34419 -0.2918 -0.056753 0.18813 0.26894 0.26421 -0.23174 -0.66608 -0.30476 0.42726 0.032755 -1.7065 0.10845 -0.50628 1.6526 0.24369 -0.033579 0.086128 -0.24579 -0.061769 0.63102 0.090618 0.77599 0.34899 1.0406 0.93388 0.18834 -0.24184 -0.15399 -0.27489 -0.53584 0.78466 0.63599 -0.55433 -0.52555 -1.0072 0.31415 0.24403 -0.014121 -1.2752 -1.4468 -0.27753 -0.14488 -0.47632 0.44077 -0.62933 0.26027 0.22618 0.3705 0.47078 -0.55834 0.39986 0.16891 -0.28637 0.54823 -0.33597
ship -0.2249 -0.11941 0.15471 -0.22297 -0.36309 -0.88817 0.45003 0.035466 0.067024 0.49851 0.66562 0.6606 0.50062 0.23956 -0.12973 -1.2 0.67643 -0.048885 -0.20526 -0.028385 0.89669 -0.41295 0.029302 -0.91545 0.39525 0.15798 -1.7402 0.060506 0.53652 -0.084067 -0.48895 0.18427 -0.21628 0.02351 0.35186 -0.099016 0.12256 -0.25232 0.56581 -0.43601 -0.67836 -0.56732 0.020607 0.038937 1.4693 0.53705 -0.57379 -0.038212 0.45976 0.82501 0.73131 1.0553 0.24808 1.1158 -0.048821 -1.6372 -0.69059 -0.69822 1.9533 0.4521 -0.42491 0.5516 -0.27821 0.445 -0.011544 0.55967 -0.64076 0.4514 -0.00087626 0.053854 -0.2096 -0.27616 0.5549 0.19193 0.42856 0.65215 0.225 0.20816 -0.69782 0.094105 0.29726 -0.25539 -0.30526 1.2222 -0.54553 -0.97585 0.70789 -0.83105 -0.25897 -0.56321 -0.2481 -0.064943 0.83752 -0.22346 0.1939 -0.018123 -0.62268 -0.24275 0.47207 -0.43393
insurance 0.082126 0.12749 -0.0048877 0.27874 -0.18641 -0.35477 -0.13029 -0.22733 0.11581 -0.54769 0.091587 0.21996 -0.66575 0.090856 0.11338 -0.77217 0.76234 0.37793 -0.098718 0.18575 0.17434 0.4335 -0.2385 0.31006 -0.66249 -0.56039 -0.74369 -0.88979 -1.41 -0.61907 0.55092 0.94852 -0.06665 -0.37591 -0.47879 -0.17245 -0.21296 0.34527 -0.2722 -0.29643 0.89822 -0.21599 -0.5249 -0.50589 -0.0041062 -0.086466 -0.31891 0.13782 -0.322 -1.2148 -0.085825 0.079072 0.043473 0.35859 0.44039 -0.93435 0.80153 -0.41109 2.2599 1.0482 0.64172 -0.49816 0.4485 0.14646 0.75862 0.1063 -0.045928 0.88306 0.92005 -0.31072 -0.9912 -0.35945 -0.60291 0.19092 0.40144 -0.1086 0.18994 -0.12808 -1.3593 -0.64009 1.2458 0.42156 0.66608 0.019829 -1.2893 -0.4875 -0.47222 -0.22102 -0.065606 -0.21293 0.58089 -0.74047 0.31841 -0.71619 -0.14495 0.94301 0.97915 0.44582 0.76551 -0.52096
directed -0.21567 -0.33206 -0.45313 -0.41919 0.82384 0.36837 -0.61553 0.16841 -0.62995 -0.023168 0.2699 -0.4657 0.094082 0.26985 0.2795 0.1807 0.0074895 0.29671 -0.63218 0.86336 0.42662 -0.55487 0.33863 -0.21184 0.24564 0.40058 0.17919 0.066713 0.098859 0.17272 -0.56386 0.5703 -0.14503 0.35375 -0.26583 -0.14769 0.80013 -0.0067112 -0.39313 0.027752 -0.10297 0.30957 -1.0458 1.176 0.92512 -0.56637 -0.77477 -0.83083 -0.11463 0.055441 -0.40675 -0.054181 0.46651 0.81062 0.033595 -2.1541 -0.36123 0.85944 0.50093 -0.4943 0.4748 1.1931 0.42139 -0.10817 1.0794 -0.50794 0.26591 1.1886 0.21978 1.0539 0.47414 -0.011562 0.026147 -0.031809 -0.16441 0.045222 -0.27503 0.67033 -0.59198 0.089545 -0.23214 0.12678 -0.2528 0.063869 -1.6515 0.088796 -0.18252 -0.31924 -0.2131 -0.9439 -0.56847 -0.75329 -0.61068 0.30506 0.58672 0.40351 0.061258 0.024186 -0.43767 -0.26252
pulled 0.2602 -0.21419 0.11374 -0.75333 0.26766 0.052787 0.20349 0.64221 0.12834 -0.31811 0.33084 0.59375 0.28047 0.12964 0.10181 0.18658 -0.51348 0.23506 -0.25828 -0.86685 0.70961 0.47244 0.30968 0.43241 0.61802 0.16394 -0.83343 -0.26381 0.19951 -0.36005 0.26608 0.047317 -0.44595 0.2626 0.14639 -0.53385 -0.24901 -0.077532 -0.041849 0.70482 0.013715 -0.40546 0.45362 -0.17334 -0.12926 0.35806 -0.39565 0.61886 0.45532 -0.61725 -0.26636 0.31152 -0.13014 0.68025 -0.047691 -1.9892 -0.91882 0.31169 1.281 0.89577 0.40744 0.54268 -0.079889 0.96259 0.17098 -0.012507 0.095031 0.46072 -0.4204 0.56538 -0.010348 0.19301 -0.14762 -0.12885 0.2293 0.43654 -0.28788 0.2842 -0.30525 -0.10327 0.37797 0.071225 -0.58751 -0.038042 -0.64343 -0.71827 -0.13421 0.46547 -0.77874 0.073915 -0.046317 -0.16075 0.096458 -0.066363 -0.80497 -0.083483 0.13487 0.76131 0.24342 0.22089
pilot -0.014662 -0.43267 0.37931 -0.034518 -0.27938 -0.74985 0.60953 0.21411 -0.56545 0.37324 0.25187 0.62206 0.26666 -0.26293 -0.017507 -0.74034 0.45969 -0.34105 0.33042 0.72679 -0.2293 -0.068264 0.25197 -0.4417 0.71676 -0.19293 -0.53749 0.19115 0.26734 0.21107 -0.75435 0.81828 -0.37331 0.27986 0.17754 0.28386 -0.042966 0.19048 0.74975 0.34596 -0.85646 0.45601 0.12725 0.56005 0.71534 0.39898 -0.51868 -0.25727 -0.25404 -0.19493 -0.61319 0.25996 -0.4109 1.255 0.80085 -1.2221 0.2887 0.11153 2.0299 0.48401 0.47877 0.98947 0.58234 0.09781 0.31999 -0.72841 -0.24241 0.37126 -0.70732 1.1261 -0.59983 -0.5591 0.14549 0.1389 0.26515 0.74782 0.5876 0.56835 -0.63737 -0.10264 -0.21738 -0.39225 -0.19074 -0.26976 -1.2331 -0.4911 0.75851 -0.035793 -0.31049 0.032461 0.14845 -0.067627 0.30921 0.42057 0.24461 0.71181 0.1356 -0.2967 -0.39452 -0.97635
salary 0.31985 0.35361 0.064402 -0.060798 -0.7514 -0.42028 -0.05515 0.68295 -0.44719 0.56378 0.1548 -0.10755 0.075361 -0.47798 -0.028505 -0.61734 -0.016134 0.27916 0.33261 0.30986 -0.24902 0.11129 -1.3424 0.38985 0.68993 -1.4382 -0.36079 -1.133 -0.41202 -0.59262 0.20063 0.5478 0.12118 -0.64975 -0.29262 0.56206 -0.22877 0.72473 -0.57636 -0.20463 0.40672 -0.010797 0.6609 -0.11294 0.063494 -0.0099242 -0.72812 -0.86693 -0.13696 -0.62256 0.42595 -1.1181 -0.3778 0.92147 -0.090784 -0.98966 0.71967 -1.1352 1.5302 0.6276 0.27337 -0.2648 -1.177 -0.28237 0.70576 -1.1963 0.25096 -0.26906 0.50239 -0.02297 0.25905 -0.30963 -0.52199 0.01024 -0.073424 0.26395 -0.081114 -0.33187 -0.24299 0.43825 0.53662 0.15965 -0.018051 -1.5777 -0.70533 -0.064773 0.052713 -0.12481 0.49295 -0.081182 -0.061763 -0.22637 -0.80239 -1.0279 -0.19862 -0.30618 0.72004 0.89138 0.7411 -0.69176
detective -0.1054 -0.60724 0.49672 -0.75732 -0.0073852 0.81078 0.4066 -0.1018 -0.26969 0.091478 -0.22618 -0.27884 -0.47519 0.74267 -0.051925 0.14716 1.2284 0.18422 -0.084126 0.71345 0.76814 -0.56125 -0.63682 -0.92072 0.4866 -0.07174 0.46947 -0.91762 -0.56116 0.51034 -0.64701 -0.23249 -0.48303 -0.34544 0.046763 0.059529 -0.8575 -0.70115 1.5582 0.22041 0.12434 0.59839 -0.14866 -0.24334 -0.017865 0.58136 -0.71402 -0.58245 0.33698 -0.27494 0.36646 -0.071473 -0.041079 1.2269 0.39374 -0.86482 -0.72942 0.47474 0.006964 0.63554 -0.076667 1.0984 0.10303 -0.026192 0.65754 -1.0175 0.35722 0.92069 0.62978 1.703 -0.051378 0.14653 -0.098029 0.17686 0.30232 -0.093946 0.1663 0.46107 -0.46375 -0.248 -0.1248 1.2384 0.1316 -0.46599 -0.90876 -0.22171 -0.82738 0.60696 -0.096357 -0.044602 0.29591 0.014622 -0.25173 -0.19843 0.64392 0.26119 0.071514 -0.65321 -0.5117 -0.076036
employer 0.20836 0.20948 -0.088029 0.40419 -0.57059 0.16404 -0.49708 0.60093 0.21481 0.1226 0.031626 -0.24364 0.39694 -0.084016 -0.17684 -0.3907 0.63198 -0.0018374 -0.13017 0.80449 -0.083446 0.25895 -0.47109 0.3767 -0.21094 -0.54476 -0.43352 -0.87375 -0.52301 -0.72546 0.72295 1.3352 0.70244 -0.75091 -0.48081 -0.0058148 -0.15988 -0.064021 0.12231 -0.1786 0.053162 0.44447 0.34708 0.34918 -0.27177 0.060258 -0.25115 0.31873 -0.36799 -0.5401 -0.27474 -0.046316 -0.20298 0.57537 -0.01186 -0.17683 0.092341 -0.75364 1.3547 -0.0092587 0.38447 -0.69782 0.027977 -0.17263 1.0948 -0.49091 0.22054 0.12097 0.010217 0.16107 -0.04616 -0.33057 -0.08635 -0.60601 0.62511 0.19236 0.41441 -1.1776 -0.82051 0.091658 0.59683 0.25239 0.23833 -0.46828 -1.0867 -0.64548 -0.12627 0.388 0.11992 -0.51942 -0.007685 -0.17912 0.63033 -0.25926 0.14143 0.74043 0.91553 0.23667 0.76086 -0.30788
airplane -0.16905 0.27387 0.56794 0.0019879 -0.12258 -0.47564 0.53575 0.053408 0.33973 0.39381 0.53866 -0.079248 0.21101 0.39848 -0.24034 -0.21135 0.24204 0.755 0.87943 0.0076776 0.22761 0.13173 0.24464 -0.79466 0.53546 -0.13146 -1.0728 0.33607 0.14914 -0.18328 -0.27835 0.22114 -0.0086374 0.71159 -0.37257 0.92297 0.6715 0.46155 1.0223 0.033371 -0.42123 -0.25116 0.23897 0.29825 0.19633 0.47368 0.11481 -0.24439 -0.45919 -0.27042 -0.31669 0.57177 -0.29423 0.81875 0.44011 -0.77701 0.080021 0.84484 2.2236 0.29603 0.26407 0.89465 0.33492 0.46542 -0.42811 -0.32176 0.066258 -0.10479 -0.73056 0.38247 -0.64507 -1.0068 0.095788 -0.22178 0.37206 0.1436 0.54153 -0.037319 -0.8034 0.49769 -0.4854 0.096025 0.17554 0.22751 -0.63573 -0.76998 0.68933 -0.67634 -0.84612 -0.188 0.28685 0.020765 0.41986 -0.037801 0.063915 0.41061 -0.19975 0.010633 0.56534 -0.96648
solved -0.14348 0.2152 0.39227 0.85261 -0.50305 -0.035775 0.65843 -0.51997 1.304 -0.0086253 0.18757 0.81588 0.67352 0.38474 -0.75472 -0.67493 -0.65162 1.1355 -0.51949 -0.76624 0.04007 -0.37609 0.23857 -0.23358 0.34825 -0.41803 0.40002 -0.44962 -0.47748 0.23475 -0.53914 -0.063924 -0.31001 0.028905 0.27043 -0.042101 0.28388 -0.74653 0.30298 -0.46849 -0.41054 0.2321 -0.11185 -0.56988 -0.4179 -0.0072262 0.74831 -0.08231 -0.32843 -0.01249 0.12605 -0.57712 -0.28179 0.97743 -0.26259 -0.73218 -0.16668 0.27479 0.15646 0.24182 -0.61593 0.3074 -0.91333 -0.76345 1.3149 -0.021048 0.056909 0.6369 0.13675 0.28233 0.013407 0.14435 0.30929 0.0069505 0.82022 0.07426 -0.30701 -0.20323 -0.60379 0.59308 0.1626 0.2029 -0.16807 -0.19028 -0.96763 0.89318 0.24148 0.0074195 -1.3414 -0.51531 -0.57565 0.50925 -0.80798 -0.15768 0.03198 0.214 0.45584 -0.33417 0.10599 -0.12502
rode 0.054254 -0.062756 -0.34104 -0.31647 0.34938 0.22592 0.1825 0.7668 -0.68372 -0.48438 0.17814 0.40581 0.14335 -0.14932 0.042424 -0.20058 0.39629 0.62828 -0.23817 -0.52639 1.275 0.51265 0.13269 -0.43701 0.12489 -0.25842 -1.0292 -0.11303 0.64409 -0.59827 -0.27091 0.10646 -0.071944 0.65317 0.51757 0.42667 -0.06947 0.30632 0.6454 0.90133 -0.14267 0.053788 0.58734 -0.5335 -0.41406 0.25184 0.25066 -0.0033978 0.58385 -0.41137 -0.52061 0.0076241 0.50527 0.57198 0.28388 -1.2086 -0.29468 1.07 0.02669 0.15618 0.41752 0.50174 0.11453 0.53453 -0.25374 0.43211 -0.60682 -0.41758 0.21867 0.77715 -0.068855 -0.01469 -0.17825 -0.31705 -0.059366 0.44448 0.26775 0.041578 0.041583 -0.72304 0.43001 0.35389 -0.26061 0.29454 0.41437 -0.65459 -0.72978 -0.090407 -0.72769 -0.10627 -0.28315 -0.6537 -0.034115 0.21671 -0.48325 -0.58055 -0.31836 0.36644 0.12916 -0.070114
exam -0.15784 -0.065064 -0.079498 0.06059 -1.2286 0.62262 -0.095423 1.3397 0.14 0.78842 0.43995 -0.12488 -0.065303 0.24404 -0.027406 -0.075548 0.71216 0.33899 0.098941 -0.39269 -0.80882 -0.83305 -0.62453 -0.11135 -0.23362 -0.86868 0.54563 -0.88064 -0.49997 -1.0028 -0.56213 0.13174 0.22075 0.082593 0.47048 -0.15364 -1.4123 0.12214 -0.75887 -0.070602 -0.77044 0.085034 -0.30541 -0.91343 -0.7279 -0.43343 -0.094068 -0.28491 -0.48065 0.093439 0.14478 -0.37772 -0.13289 0.48725 -0.24936 -0.89596 -0.030234 -0.55268 1.3196 0.1395 -0.20059 0.57421 0.26772 -0.096877 -0.55601 0.1075 0.1065 -0.3334 0.17022 0.019518 -0.63445 0.8291 0.95935 0.52676 -0.96009 0.72918 -0.48473 0.11527 -0.15991 -1.5168 0.46178 0.18365 -0.20787 -0.97029 -1.457 -0.22315 0.72295 -0.3623 0.12439 0.1204 -0.60555 0.33554 -0.35124 1.2218 0.30215 1.1591 0.87465 -0.12074 -0.2243 -0.21737
insurer 0.18578 -0.0086809 0.75836 1.1726 -0.27834 0.2451 0.1691 -0.91115 0.026575 -0.54934 -0.035786 0.56129 -0.19112 -0.4328 -0.50169 -0.37102 0.84953 -0.11439 0.41285 0.16707 0.36561 0.30088 -0.8392 0.69063 -0.21848 -0.073457 -0.57033 -0.51859 -1.4333 -0.94624 0.54399 0.38107 0.0059702 0.26266 -0.28113 0.34166 0.32144 0.32386 -0.27177 -0.60506 0.75596 0.31472 -0.64577 0.053633 -0.016143 0.82923 -0.52986 0.41055 0.14803 -0.63108 -0.27499 0.0087195 0.49863 0.073638 -0.12491 -0.5296 0.62922 -0.1855 1.1305 0.71885 1.1528 -0.94507 0.14682 0.21172 0.25057 0.07086 -0.90611 0.97619 0.28769 -0.2742 -1.1271 -0.28241 -1.2534 0.059976 0.20603 -0.037401 0.14264 -0.70559 -0.92858 -0.13726 1.0097 0.299 0.24472 1.3658 -0.23033 -1.3243 -0.50621 0.32821 0.63944 0.046431 0.14833 -0.5644 0.50696 -0.096505 0.27112 1.371 1.0213 -0.079395 0.29453 -0.34125
sailor 0.13164 0.58473 0.23238 -0.72825 -0.22101 0.017929 -0.011144 -0.43348 -0.50526 0.35987 -0.023527 0.054427 0.23673 -0.1622 -0.05028 -0.48994 0.76524 -0.1982 -0.27465 0.1698 0.75449 0.040582 0.044386 -0.15272 1.0561 1.1007 -1.2214 -0.52657 0.44682 0.2013 -0.56111 0.25411 -0.52278 -0.46471 0.81588 -0.35654 -0.6406 0.54759 0.022108 -0.13165 -0.62242 0.70572 0.40623 0.073262 0.37604 0.98615 -0.71951 -0.082754 0.25561 0.3374 0.32445 0.13235 0.2619 0.93964 -0.17469 -0.58586 -0.48134 -0.14327 0.25756 1.1442 -0.005698 0.58195 -0.35238 0.18862 0.51476 -0.0059101 -0.29806 0.13678 -0.62384 0.42838 0.10816 -0.071342 -0.0088122 0.57575 0.22536 1.07 1.0738 -0.53629 -0.12347 -0.76598 -0.09204 -0.47131 0.73859 0.47142 0.24421 -0.9631 -0.17115 0.60093 0.63541 -0.25509 -0.48152 0.43554 0.50791 -0.55838 0.39494 0.3342 -0.75458 -0.19966 -0.8499 -0.90819
robbed 0.83683 -0.38169 0.13094 -0.36581 -0.0060077 0.83928 0.041608 0.73208 0.65124 -0.041912 0.017152 1.3682 0.49803 0.33457 -0.17728 0.11198 -0.44776 -0.045368 -0.90103 0.47243 1.0857 -0.039826 0.27985 -0.31289 0.23278 -0.26242 -0.50901 -0.22519 0.19195 -0.15645 0.94029 0.23533 -0.42141 0.20132 0.43562 -0.98439 -0.66436 0.50801 -0.18695 0.0222 0.1697 -0.45134 0.54275 0.24527 0.084958 0.28821 0.27709 0.35278 0.15963 0.013736 -0.73824 0.33165 -0.17664 0.26125 -0.26592 -0.35159 -0.28151 0.31278 0.28722 0.18939 -0.29183 0.25231 -0.575 0.42514 -0.25744 -0.29064 0.74243 0.016275 0.53962 0.16521 -0.57734 -0.22786 0.3922 -0.00044694 0.22662 0.17458 0.4305 -0.011419 -0.66317 0.34381 0.49679 0.52157 -0.42984 0.010355 -0.1569 -0.58901 -0.11821 0.50837 -0.76333 -0.70268 0.22718 -0.73849 1.0408 -0.28413 -0.56087 -0.41936 0.28134 0.8104 -0.16783 -0.083964
tooth -0.13957 0.80845 -0.47429 0.19556 -0.61862 -0.26833 -0.51674 -0.16051 0.66449 -0.017009 0.1318 -0.1251 1.2907 0.62899 0.77008 0.70242 0.045162 -0.21734 0.41901 0.0021012 0.50071 -0.40865 -1.0825 0.25383 0.83631 1.3229 0.35936 -0.39213 -0.12802 -0.6299 0.27099 -0.4477 0.58039 -0.10715 0.46916 -0.49509 -1.316 0.14859 0.60947 -0.48743 0.18109 0.20802 -0.2336 -1.2108 -0.23167 0.55387 -0.014763 0.34174 0.015931 0.077643 0.11998 -0.21513 -0.18237 1.0224 -0.16645 -0.78924 0.060511 -0.59845 0.1298 0.57769 0.48841 0.71755 -0.044655 0.99469 0.35052 0.38816 0.44599 0.34377 0.34487 -1.2205 0.15049 0.86731 0.4829 0.3699 0.11309 -0.34143 -1.2575 -0.3129 -0.5128 0.53164 -0.60336 0.033943 0.093353 0.28053 -0.41838 -0.072182 0.40077 -0.22501 -0.0029655 0.66122 0.29199 -0.45446 -0.18147 0.98489 0.14362 -0.72724 -0.047236 -0.24614 0.20043 -1.0156
cyclist 0.66877 -0.0024113 0.085228 -0.013894 -0.016054 -0.20419 0.21513 0.22277 0.1134 -0.067645 0.049074 0.558 -0.053801 -0.72676 -0.1567 0.45744 1.008 -0.52652 -0.33776 0.10866 0.65949 0.34617 0.11116 0.44368 0.41283 -0.11442 -0.044388 -1.1469 0.7328 -0.56502 -1.0354 0.1096 -0.2807 -0.44258 1.0395 0.21322 -0.61578 0.4988 -0.20966 0.77765 0.074207 0.74885 1.1096 -0.70255 0.29566 0.46474 0.00012508 -1.1065 0.18086 -0.18444 0.4066 0.023135 0.15267 0.61585 0.22591 -0.30651 -1.0644 1.1661 0.36528 0.62232 0.2579 -0.042744 0.49935 0.72458 0.28214 0.49934 -0.077209 0.19805 0.51777 0.4717 0.11434 -0.18472 -0.078363 0.73161 0.61627 0.52436 1.3042 -0.42963 0.28505 -1.3542 0.10979 -0.16741 -0.11253 0.63085 0.28236 -0.26974 -0.59367 0.77793 -0.10502 -0.43722 -0.79418 -0.3319 -0.46173 0.61728 1.0177 0.33011 -0.43449 -0.22706 -0.36945 -0.79767
thief 0.78276 -0.29632 0.93419 -0.52406 0.67018 0.63586 0.45347 -0.017533 0.46177 -0.34511 -0.39208 0.74029 -0.37548 0.53465 -0.24075 1.4606 0.38961 0.095453 -0.20891 0.94459 0.026784 -0.47402 -0.21351 -0.96657 1.123 0.58073 -0.86061 -0.059419 0.28708 -0.04648 -0.17657 -0.084327 -0.071836 -0.0098704 0.69628 0.033108 -0.70914 -0.40115 1.4057 -0.32975 0.07784 0.25698 0.26742 -0.29679 0.19969 0.13739 -0.20307 -0.40669 0.43318 0.27079 -0.51093 0.36686 0.47112 1.0108 -0.55427 -0.038328 -0.67559 0.6149 0.3771 -0.04039 0.10425 0.46589 -1.1474 0.42295 0.36529 -0.087215 0.93048 -0.24273 0.53969 0.19787 -0.66262 -0.47994 -0.26601 0.062117 0.34121 -0.46419 0.35916 -0.1454 -0.23245 -0.18255 0.62575 0.39303 -0.42291 -0.29054 -0.52912 -0.026023 -0.29086 -0.31982 -0.15617 -0.27984 -0.3492 -0.27522 0.49517 0.10059 0.072239 -0.40734 0.37267 -0.18416 -0.048002 -0.75464
steered -0.29781 -0.24264 0.2322 0.2211 0.46112 0.080885 -0.0047266 0.063659 -0.26535 0.099217 0.4741 0.33564 0.0096617 -0.26493 -0.074041 -0.34659 -0.19716 0.09669 0.14299 -0.27456 0.26699 0.8477 0.17462 -0.43992 -0.069207 -0.058363 -0.8258 0.33177 -0.39945 -0.14748 0.06735 0.71366 -0.52486 0.0062992 -0.066267 0.2276 -0.064516 0.09682 -0.4284 0.55622 -0.96395 -0.51814 0.34531 0.10587 -0.32407 0.095672 0.44426 0.34205 0.27743 -0.085147 -0.23878 0.56007 0.14669 0.27637 0.26238 -0.60651 -0.1283 0.353 0.29061 -0.055767 0.44492 -0.013539 0.31262 0.24461 -0.24497 -0.16634 -0.10948 0.47969 -0.11797 -0.013559 -0.052496 0.093604 0.04009 -0.55172 -0.25094 -0.35143 -0.2061 -0.043991 -0.18994 -0.28208 0.087845 0.73462 -0.36038 -0.10707 -0.38443 -0.50478 -0.10829 0.15376 -0.57265 -0.84298 -0.68773 0.15276 0.030267 -0.52701 0.50642 -0.18485 -0.10347 0.98551 -0.29349 -0.18038
dentist 0.055684 0.10832 -0.058621 -0.028176 -0.53787 0.32828 -0.034967 0.56501 -0.0050454 0.14709 -0.70519 -0.53259 0.87722 1.0295 0.18915 0.087612 0.27359 0.14183 -0.10164 0.29168 -0.41164 0.8339 -0.82232 0.24948 -0.12432 0.054249 0.088638 -1.3066 0.13969 -0.18154 -0.10227 0.41141 0.51807 0.3597 -0.52075 0.26531 -1.2546 -0.24653 1.0425 -0.40925 0.27731 0.60319 0.26654 -1.1164 -0.3245 0.1095 -0.20146 0.11333 0.078068 -0.029968 0.065078 -0.51971 0.36329 0.015661 -0.16086 0.027909 -0.55065 -0.29487 0.081164 0.069414 0.50877 0.32095 0.64907 0.158 0.10833 0.0036445 0.53434 0.25091 -0.15992 0.45212 -0.38118 0.26884 -0.16612 -0.0046714 0.075531 -0.061919 0.041939 0.041839 -0.054657 -0.3448 0.058183 0.35175 0.20857 0.31997 -0.76444 0.098393 0.78943 0.62279 -0.55571 -0.70168 0.43934 -0.12429 0.92761 0.42997 -0.19055 0.21329 0.5691 -0.12724 -0.15341 -0.33565
berthed -0.58859 -0.18273 -0.48735 -0.17886 0.25257 -0.41823 -0.066663 0.32644 -0.20135 -0.10958 0.36088 0.69874 0.41078 -0.60806 -0.38731 -1.1827 0.6935 0.30748 0.4912 -0.67624 -0.10563 0.29053 0.38072 -0.78231 0.35141 -0.044167 -0.96498 0.10588 -0.17692 0.29696 -0.88299 -0.2737 0.39072 0.17911 0.005182 0.65576 -0.11378 -0.13158 0.24908 -0.60395 0.56385 -0.84888 0.17745 -0.032187 1.6157 0.30248 -0.089261 0.71614 -0.76248 0.2374 0.29525 -0.31657 0.48603 -0.10735 -0.23002 -0.19313 -0.16952 -1.2783 -0.13013 0.79828 -0.11686 0.33507 -0.15955 0.1756 -0.77008 -0.033185 -0.13386 0.21218 0.055824 0.85 0.89376 -0.11202 0.65112 0.21172 -0.39682 0.065829 -0.3735 -0.34706 0.84801 -0.65493 -0.60626 -0.63742 -0.71207 1.3498 1.138 -1.0769 0.34196 -0.022163 -0.45588 -0.25715 -0.58883 -0.55009 -0.16932 -0.21412 -0.0062972 0.79715 -0.19638 0.11364 -0.29379 0.11824
