the 0.418 0.24968 -0.41242 0.1217 0.34527 -0.044457 -0.49688 -0.17862 -0.00066023 -0.6566 0.27843 -0.14767 -0.55677 0.14658 -0.0095095 0.011658 0.10204 -0.12792 -0.8443 -0.12181 -0.016801 -0.33279 -0.1552 -0.23131 -0.19181 -1.8823 -0.76746 0.099051 -0.42125 -0.19526 4.0071 -0.18594 -0.52287 -0.31681 0.00059213 0.0074449 0.17778 -0.15897 0.012041 -0.054223 -0.29871 -0.15749 -0.34758 -0.045637 -0.44251 0.18785 0.0027849 -0.18411 -0.11514 -0.78581
was 0.086888 -0.19416 -0.24267 -0.33391 0.56731 0.39783 -0.97809 0.03159 -0.61469 -0.31406 0.56145 0.12886 -0.84193 -0.46992 0.47097 0.023012 -0.59609 0.22291 -1.1614 0.3865 0.067412 0.44883 0.17394 -0.53574 0.17909 -2.1647 -0.12827 0.29036 -0.15061 0.35242 3.124 -0.90085 -0.02567 -0.41709 0.40565 -0.22703 0.76829 0.60982 0.070068 -0.13271 -0.1201 0.096132 -0.43998 -0.48531 -0.5188 -0.3077 -0.75028 -0.77 0.3945 -0.16937
by 0.35215 -0.35603 0.25708 -0.10611 -0.20718 0.63596 -1.0129 -0.45964 -0.48749 -0.080555 0.43769 0.46046 -0.80943 -0.23336 0.46623 -0.10866 -0.1221 -0.63544 -0.73486 -0.24848 0.4317 0.092264 0.52033 -0.46784 0.016798 -1.5124 -0.19986 -0.43351 -0.59247 0.18088 3.5194 -0.7024 0.23613 -0.68514 -0.37009 -0.080451 0.10635 -0.085495 -0.18451 0.29771 0.18123 0.53627 -0.1001 -0.55165 0.098833 -0.12942 -0.82628 -0.4329 -0.10301 -0.56079
has 0.54822 0.038847 0.10127 0.31319 0.095487 0.41814 -0.79493 -0.58296 0.026643 0.12392 0.35194 -0.02163 -0.87018 -0.27178 0.65449 0.42934 0.097544 0.31779 -0.11921 -0.097106 -0.47585 0.24907 0.1223 -0.29079 -0.16866 -2.1072 0.022174 0.45277 -0.64485 0.13181 3.6594 -0.1714 0.23919 -0.42249 -0.088331 -0.32925 -0.12847 0.47055 -0.075953 -0.27747 -0.41905 0.60803 -0.24261 0.014885 -0.23204 0.020879 -0.82175 0.26588 -0.40267 -0.17111
made 0.14205 0.0046063 -0.40052 0.076568 0.27081 0.61955 -0.84904 -0.30413 -0.58594 0.092473 -0.034618 0.45746 -0.42953 -0.044566 0.38408 -0.096784 -0.048204 -0.26517 -0.50191 -0.51384 0.19384 0.15066 0.43169 -0.86243 0.059659 -1.5264 -0.11795 0.1915 0.10062 -0.49343 3.388 0.047361 -0.2738 0.03688 0.43812 0.28114 0.40339 0.87699 -0.40557 -0.15664 0.085523 0.36692 -0.081265 -0.32905 -0.069627 0.10247 -0.61574 0.27769 0.033304 -0.24918
country -0.13531 0.15485 -0.07309 0.034013 -0.054457 -0.20541 -0.60086 -0.22407 0.42615 0.0418 0.1217 -0.55817 -0.08953 0.0089426 0.59164 0.34329 0.64798 0.30052 0.48494 0.16524 -0.073664 0.31182 -0.083803 0.27026 0.10724 -1.7704 -0.36235 -0.15811 0.060038 0.67873 4.0124 0.43091 -0.26325 0.0561 -0.40052 -0.088487 -0.55339 -0.17892 -0.57372 -0.19628 -1.1624 0.12145 0.55842 -0.6194 -0.20974 0.49895 -1.0743 -0.028168 -0.18904 -0.6769
company 0.62583 -0.57703 0.41163 0.86812 -0.083097 0.26555 -1.48 -0.38792 0.42727 0.1168 0.7839 0.81352 -0.78763 -0.6544 -0.099214 0.20658 -0.73315 0.86418 -0.26917 -0.93792 1.919 -0.17473 -0.61905 -0.5035 -0.9341 -1.6755 -0.79399 -0.32003 -0.067678 -0.12344 3.2909 -0.43151 0.3879 0.38733 -0.018419 -0.98191 -0.53189 0.39866 0.89452 -0.40963 0.58922 -0.52377 0.27893 -0.25766 -0.30457 -0.066305 -1.1221 0.21582 -0.15586 0.64018
player -1.4871 0.40362 -0.11132 0.79151 0.48877 0.0075059 -0.79438 0.73608 -0.69985 0.4624 1.1259 0.68915 -1.003 0.52276 0.83527 -0.34995 0.60207 0.29635 -1.019 -0.18823 -1.2797 -0.19548 -0.32376 0.68116 -0.01802 -1.506 0.36944 -0.76949 -0.14064 -0.76108 3.0514 0.47131 0.36084 -0.20647 0.82575 1.0588 0.52726 0.91026 -0.16279 -1.3141 0.44188 0.1986 -0.14298 0.26461 -0.27924 0.2561 0.51025 0.23002 -0.27342 0.23677
goal -0.23687 0.0072381 0.1696 -0.55298 1.006 -0.20333 -0.85175 0.080105 0.18977 0.80851 0.17518 -0.11945 -1.562 0.18401 -0.2861 -0.98531 1.6371 -1.5494 -1.3664 0.36133 -0.73853 -0.28186 -0.5527 -0.51021 0.29676 -1.1254 1.1656 -0.34526 0.24965 -0.73933 2.9157 1.4848 -0.55925 -0.36052 -0.43891 0.40543 0.19971 1.3696 0.28704 -0.21166 0.51169 -0.13409 -0.4521 -0.68954 -1.0732 0.54302 0.62663 0.60206 0.55444 -0.31032
served -0.50631 0.34207 -1.0337 -0.43319 0.4045 0.046323 -0.80228 0.38287 -0.43832 -1.5533 -0.10678 0.45359 0.23504 0.089427 -0.30328 -0.5594 -0.55662 0.57559 -0.24275 0.36739 0.7341 -0.27437 0.39046 0.27779 -0.75126 -1.7351 0.52101 -0.43627 -0.19993 0.56563 2.3803 -0.49713 -0.44534 -0.41978 0.4644 0.38776 -0.16477 1.001 0.21329 0.28602 -0.20673 0.33107 -0.20542 -0.43806 -0.48086 0.34397 -0.71367 -0.94374 -0.33003 0.76575
published -0.066601 0.59438 -0.68071 -0.57313 -0.41617 0.36709 -1.3616 -1.2834 -0.16036 -0.2888 -0.19361 0.61374 -0.42678 -0.41019 1.1893 -1.008 -1.0106 -0.69389 -0.55886 0.81934 1.0556 0.15769 1.2894 0.22504 0.42763 -0.9203 -1.5778 -0.45674 -0.98914 0.46641 2.6331 -1.813 -0.085059 -0.79011 -0.95494 -0.22583 0.17997 0.11348 -0.068211 0.23217 1.1468 -0.53449 -0.22057 -0.37131 -0.25866 0.4144 -0.049894 0.55094 0.10518 -0.16974
song -0.9166 0.76511 -0.66093 -0.023052 -0.30395 0.43062 -0.68179 0.22567 -0.24149 1.4429 0.32787 0.63891 -0.17775 0.30394 0.69253 -0.55565 0.0094356 -0.38895 -0.097069 -0.11433 0.046024 0.43038 1.1194 0.50138 1.3218 -0.62171 -1.7675 0.10778 -0.28412 -1.1248 3.2459 -0.91298 0.35381 0.75976 -0.081547 -0.43563 1.1399 -0.73743 -0.87067 -0.58185 0.11249 -0.19434 -1.174 -1.6072 0.2563 -0.39698 0.02561 -1.2757 -0.54513 0.37287
scored -0.9809 0.14756 0.45416 -0.050933 1.0333 0.3626 -1.3033 0.2163 -0.6215 0.7366 0.25323 -0.063461 -1.703 0.12796 -0.15742 -1.4929 0.96741 -1.7168 -2.0306 0.25597 -1.2535 0.26892 0.50698 -0.6334 0.061801 -0.2198 1.4293 -0.46177 -0.59694 -1.5778 2.0836 1.3307 0.57157 -0.014229 0.69573 0.29425 0.5614 1.2923 0.40284 0.24436 0.11895 0.78483 -0.32882 -1.1402 -0.94519 0.69862 0.15472 0.018592 0.17319 -0.30453
lawyer -0.48076 -0.024485 -0.56514 0.56811 1.0292 0.34197 -0.46104 0.79147 -0.30158 -0.059771 -0.37501 0.24412 -0.69369 -0.22583 0.6866 -0.50995 0.011649 -0.42465 0.4122 -0.043693 0.25033 1.4757 -0.55179 0.1705 -0.43683 -2.5606 0.25534 -0.69693 -0.8837 0.055147 1.3674 -1.4954 -0.49868 -0.65476 0.11807 -0.68195 0.079269 0.090491 1.0439 0.081198 0.53532 1.2153 0.17128 0.61743 0.21738 -0.7897 -1.1903 -0.093861 0.1252 0.99036
ran -0.66911 -0.14966 0.76361 -0.23968 -0.42041 0.14274 -1.593 -0.020593 0.012256 -0.53842 -0.73218 -0.34389 -1.0179 0.045804 0.039799 -0.6922 -0.27796 0.35939 -0.91803 -0.12598 0.45506 0.39382 0.41845 0.11459 0.40977 -1.6186 0.50557 0.17902 0.24024 -0.22086 2.1439 0.016409 -0.080727 0.11044 -0.24094 0.010979 -0.0028198 0.60914 -0.082481 0.09398 -0.019168 0.090849 -0.52087 0.13578 -0.69831 -0.25178 -0.4393 -1.0442 0.30069 -0.30395
debate -0.1592 0.22037 -0.62902 -0.22659 -0.39077 0.79822 -0.095503 -0.053902 -0.32211 -0.080299 -1.4426 -0.99366 -0.047177 0.72735 0.43034 0.030235 0.057946 -0.53647 -0.074566 -0.49611 0.65726 0.16837 0.067264 0.090844 0.61122 -1.9484 0.43783 0.28156 -0.16618 0.98166 2.5766 0.21649 -1.1995 -1.4481 -1.0303 -0.77924 -0.6097 0.1174 -0.54497 -0.6629 -0.54693 0.069011 -0.74739 0.89434 -0.10903 0.97077 0.41781 0.77453 -0.48819 0.22799
prepared 0.81889 -0.41446 -0.35081 -0.58853 0.44444 -0.58565 -0.31314 0.71597 -0.37133 -0.42536 -0.42892 0.25666 0.42608 0.20668 0.48406 0.35924 0.34052 -0.22343 0.29409 -0.8377 0.68867 0.0057344 0.86743 -0.14843 0.034475 -1.169 -0.047178 0.083689 0.20752 -0.3313 2.6788 0.14969 -1.3257 -0.29276 0.099565 0.18574 0.31382 0.59761 -0.11371 -0.30644 0.079302 -0.24791 0.26243 -0.36764 0.73302 0.56958 -0.34528 0.85927 -0.27341 0.50285
novel 0.49672 0.61435 -1.1085 -0.50287 0.10468 1.2654 -0.45734 -1.1617 0.19154 0.78363 -0.63533 1.3319 -0.48209 0.17204 1.2379 -1.023 0.10188 -0.23859 -0.78554 0.73001 0.39725 0.16025 0.54338 0.23366 1.2367 -1.1268 -1.6962 -0.27839 0.18188 0.037352 1.7564 -1.7973 0.029911 -0.60809 -0.32301 0.029962 -0.3621 0.22969 -0.52771 -0.65718 0.25833 0.28018 0.057807 -0.76436 -0.41326 0.65741 0.84958 -0.69169 -0.022953 0.27035
doctor 0.66999 0.11698 -0.46322 -0.90012 0.5656 0.4898 -0.26031 0.71268 0.62338 0.02785 0.68012 0.76745 -0.020365 0.52097 0.80622 -0.20537 -0.88263 0.25707 -0.18035 0.80969 -0.24148 1.1617 0.30834 0.65495 0.32863 -2.2849 -0.69219 -0.71241 -0.50242 -0.076541 1.8624 -0.20323 -0.64749 -0.51617 0.50273 0.78918 0.62624 0.37496 1.2855 -0.20581 0.4103 0.71996 -0.16293 0.29106 0.47188 -0.15121 0.36688 -0.089993 0.37778 0.59818
singer -1.0509 0.82552 -0.62979 0.1709 0.18777 1.4129 -1.4289 0.37404 -0.23386 1.6775 0.80255 0.1104 0.073593 0.48184 0.81062 -0.62591 -0.016186 -0.21031 0.27083 -0.21572 -0.35435 1.6951 0.077789 0.6728 0.32041 -0.55411 -0.7866 -0.41994 -0.76126 -0.25733 2.0038 -0.89848 0.55426 0.6386 0.58477 -0.39849 0.55143 -0.6306 0.034998 -0.57651 0.07774 0.98101 -0.61109 -1.7139 0.45061 -0.56857 -0.83747 -1.5382 -0.86943 0.629
soldier -0.05888 -0.11433 0.09146 -0.77894 1.9506 0.21856 -0.1399 1.0741 0.033428 -1.5337 0.28216 -0.76785 -0.13984 0.1924 0.19225 -1.0372 -0.48361 0.5671 -0.87931 0.59897 -0.66722 1.2274 -0.19013 0.00091553 0.047809 -1.9535 -0.58352 -0.34564 0.61133 0.53076 1.8786 -0.88464 -0.79512 0.26986 0.45681 1.1192 0.21999 -0.96335 -0.19483 -0.22456 0.38594 0.099907 0.30191 -0.84675 1.0729 -0.90199 -0.18362 -0.19243 -0.044231 -0.12519
politician -1.3489 -0.20604 -0.32046 -0.67097 1.1553 1.0243 -0.43156 0.43772 -1.4715 -0.42142 -0.044698 -0.3108 0.35697 0.67002 -0.25693 -0.79017 0.46394 0.56398 -0.33475 0.81236 -0.13521 0.64613 0.060852 0.98611 0.26751 -2.5146 -0.24537 -0.886 -0.49686 1.9433 1.4949 -1.065 -1.1965 -0.22821 0.26013 -0.3287 -0.75024 0.35921 0.21084 -0.3669 0.036128 1.2239 -0.59315 -0.35667 -0.40924 0.058038 -1.4763 -0.45297 1.389 0.0892
engaged 0.61548 -0.82886 -0.73761 -0.23685 0.16597 0.59797 -0.2997 0.51639 -0.26783 -0.51814 -0.10989 0.21432 -0.52295 -0.23414 -0.32051 -0.72334 0.080305 0.55515 -0.11006 -0.0071398 0.92423 0.75677 0.37043 0.051531 -0.0087734 -1.2295 0.42507 -0.76385 0.57321 0.36379 2.3217 -0.34113 -0.16031 -0.90974 -0.25427 0.16605 -0.89899 0.1906 -0.91468 0.26888 -0.20684 -0.61893 0.39642 0.20337 0.58473 -1.0132 -0.44788 -0.14612 -0.61676 0.43166
cook -0.13943 0.017151 -0.93222 -0.27535 0.64995 0.30881 -0.79803 0.59895 -0.065135 -0.86294 -0.54042 0.85057 0.74355 0.32445 0.29037 0.31137 0.68033 -0.085033 -0.59788 -0.50544 0.8221 0.65098 1.4318 0.52939 0.40459 -0.68731 0.72354 0.12207 0.41192 0.049776 2.0408 -0.27222 -0.347 0.40657 0.28294 0.18117 -0.3758 0.81424 1.1397 -0.467 0.67849 0.77155 0.089114 -0.2941 0.18816 1.186 -0.063463 -0.45469 -0.010657 1.074
painting 0.26914 0.61582 -1.188 -1.3199 0.8267 -0.095175 -0.87841 -1.1555 -1.034 0.81619 0.16587 0.046791 0.48288 -0.12643 0.61467 -0.55066 0.21544 -0.27077 -0.41925 -0.72088 1.0485 0.22358 -0.81424 -0.96306 0.64869 -0.65665 -1.4663 0.19669 0.10807 -0.60062 1.7614 -1.1843 -0.21656 -1.253 -0.36395 0.77456 -0.11737 1.6432 0.14524 -0.1186 0.59159 -0.2411 0.68228 -0.33487 0.28921 -0.37556 0.42186 -1.2698 0.24874 -0.92742
publisher -0.76679 0.15248 0.3443 0.35913 0.40512 -0.10766 -1.8737 -0.9037 -0.053097 0.022988 -0.18153 0.91556 -0.7825 -0.30559 0.99545 -0.32716 -0.51826 -0.24442 -0.0015587 0.28481 1.0678 0.27728 -0.096765 0.80979 -0.20602 -1.2605 -1.0845 -0.82843 -0.49575 0.39891 1.1672 -1.4934 0.25831 0.13828 -1.1929 -0.75533 -0.99712 0.070429 0.41388 -0.58755 1.9349 0.18324 -0.48139 0.31862 -0.31969 0.3874 -0.60567 0.17718 -0.28523 0.52221
painted 0.50807 0.43131 -0.60313 -1.2877 0.78266 0.074522 -1.0494 -1.469 -1.1599 -0.47939 -0.29972 0.1347 0.35187 0.38587 0.029278 -0.39983 -0.41634 -0.39082 -0.32779 -1.3979 -0.18929 -0.098993 -0.006789 -0.85395 -0.061117 -0.36759 -1.3602 1.5128 -0.077015 -0.61852 1.4362 -0.98363 0.11615 -0.92777 -0.1478 0.75106 0.23754 0.68631 -0.63093 -0.26856 0.28308 0.13523 0.54862 -0.56034 0.73516 0.20785 -0.2934 -1.4118 0.41306 -1.272
marathon -0.15478 1.0741 -0.61674 1.1513 -0.63769 -0.2137 -0.40377 0.67091 0.61841 0.37513 -0.29791 -1.6072 -1.0569 0.49458 0.81407 -0.53471 0.36049 0.45863 -1.3651 0.087047 0.95598 0.51483 -0.27146 0.43322 0.55428 -0.88338 0.021147 -0.34453 -0.69491 -0.059281 1.1505 0.85275 -0.91299 0.65531 -0.11497 -1.0677 0.19407 1.1722 -0.16083 0.16422 -0.58402 -0.65288 0.0012386 0.018837 -0.18755 0.03563 0.75862 -0.33968 -0.27846 -0.48307
athlete -1.5853 1.3824 -0.30704 0.33044 0.48655 0.45234 -0.069579 0.22905 0.73946 0.36195 1.3053 -0.30742 0.03968 0.37709 1.4039 -0.28165 0.58479 1.5553 -0.92021 -0.42956 -1.1762 0.56278 -0.17886 0.52451 0.60041 -1.7412 -0.11099 -0.64737 -0.5074 0.39002 1.3287 0.34395 -0.31693 -0.59484 0.36634 0.33177 0.49124 1.3427 -0.60569 -0.73597 -0.11792 0.069227 0.35392 0.85239 0.21523 -0.89799 -0.065416 -0.010681 -0.066724 0.1998
painter -0.38354 0.70864 -1.2219 -1.1444 1.1944 0.10009 -1.267 -0.66278 -1.7099 0.68182 0.77077 0.22255 0.62392 0.27262 0.73977 -0.86404 0.27859 -0.16354 -0.72894 0.2995 0.2692 0.20326 -1.1745 -0.006329 0.54593 -0.57728 -0.94811 -0.79543 -0.1629 0.61521 0.83094 -1.6376 0.074133 -0.90641 0.42155 0.75827 -0.29943 1.7716 0.31635 0.069809 0.92734 0.69134 0.6448 -0.96137 0.65549 -0.14139 -0.014532 -1.4283 0.32168 -0.17813
sued -0.21517 -0.86828 0.29997 0.90509 -0.5517 0.99129 -0.99337 0.25867 0.30179 0.24364 0.24939 0.21017 -0.2549 -0.87601 0.78756 -0.0168 -0.54121 -0.019285 0.21285 -0.26008 0.67114 0.48077 -0.39794 -0.17317 -1.0253 -1.7286 -0.174 -0.84326 -0.6139 -0.80373 0.87416 -0.56338 -0.11837 -0.39676 -0.43826 -0.66586 0.23344 -0.87057 0.64509 -0.56764 0.16234 -0.020252 0.21276 0.75616 -0.13156 -0.47883 -1.6204 -0.24331 -0.34372 0.16292
sung -0.37161 1.0471 -0.69458 -0.33357 -0.39653 -0.27657 0.31433 0.030245 -1.1995 0.9126 -0.17964 0.49843 -0.0040799 0.21184 -0.20419 -0.30699 -0.016369 -0.0615 0.50879 0.71319 -0.41328 0.56629 0.78534 -0.21657 1.3168 -0.8378 -0.28164 0.18471 -1.9131 -0.94335 2.4144 -0.62729 1.114 1.3344 0.1571 -0.54623 1.2737 0.092407 -1.1766 0.18342 -0.062381 0.24897 -0.71099 -0.79842 1.0734 -0.7408 -0.40018 -0.74217 -0.80402 -0.12905
meal 0.5192 -0.0074961 -1.5098 -0.68909 1.7196 -0.26069 -0.67382 0.0013031 0.8019 0.53301 -0.4639 -0.14867 1.5909 0.20134 1.2569 0.14194 -0.20951 0.11942 0.045642 -0.63511 0.95601 -0.35733 0.60698 0.47728 0.069038 0.019549 -0.061712 0.25443 1.4404 0.32939 2.282 0.68817 -0.754 1.7697 0.65271 0.5572 0.35117 1.1747 0.28383 0.39339 0.088408 0.14433 -1.0015 0.66182 0.91968 0.26328 0.055248 0.089681 0.15393 0.7852
diagnosis 1.6361 0.26503 -0.18843 -0.48756 -0.38857 1.2894 0.29438 0.012794 0.91751 0.48365 0.70817 -0.36871 0.2244 -0.39318 0.29109 0.53036 -1.4219 -0.90917 0.2395 0.72509 -1.2142 0.44016 0.35004 -0.079428 0.72493 -0.71393 -0.6786 -0.26677 -0.19369 0.46741 1.6959 0.033249 -0.35182 -1.1418 0.46518 -0.044404 1.387 1.1524 0.6488 -0.51892 0.17128 -0.38516 -0.26432 1.1174 0.71696 -0.22994 1.1841 1.1639 0.6415 1.0801
