the -0.038194 -0.24487 0.72812 -0.39961 0.083172 0.043953 -0.39141 0.3344 -0.57545 0.087459 0.28787 -0.06731 0.30906 -0.26384 -0.13231 -0.20757 0.33395 -0.33848 -0.31743 -0.48336 0.1464 -0.37304 0.34577 0.052041 0.44946 -0.46971 0.02628 -0.54155 -0.15518 -0.14107 -0.039722 0.28277 0.14393 0.23464 -0.31021 0.086173 0.20397 0.52624 0.17164 -0.082378 -0.71787 -0.41531 0.20335 -0.12763 0.41367 0.55187 0.57908 -0.33477 -0.36559 -0.54857 -0.062892 0.26584 0.30205 0.99775 -0.80481 -3.0243 0.01254 -0.36942 2.2167 0.72201 -0.24978 0.92136 0.034514 0.46745 1.1079 -0.19358 -0.074575 0.23353 -0.052062 -0.22044 0.057162 -0.15806 -0.30798 -0.41625 0.37972 0.15006 -0.53212 -0.2055 -1.2526 0.071624 0.70565 0.49744 -0.42063 0.26148 -1.538 -0.30223 -0.073438 -0.28312 0.37104 -0.25217 0.016215 -0.017099 -0.38984 0.87424 -0.72569 -0.51058 -0.52028 -0.1459 0.8278 0.27062
was 0.13717 -0.54287 0.19419 -0.29953 0.17545 0.084672 0.67752 0.098295 -0.035611 0.21334 0.51663 0.20687 0.44082 -0.33655 0.56025 -0.6879 0.51957 -0.21258 -0.52708 -0.12249 0.33099 0.026448 0.59007 0.0065469 0.45405 -0.33884 -0.28261 -0.24633 0.10847 0.3164 -0.15368 0.73503 0.11858 0.70842 0.075081 0.29738 -0.11395 0.40807 -0.042531 -0.21301 -0.79849 -0.12703 0.752 -0.41746 0.46615 -0.039097 0.65961 -0.32336 0.442 -0.94137 -0.23125 -0.30604 0.79912 1.4581 -0.88199 -3.0041 -0.75243 -0.20503 1.1998 0.94881 0.30649 0.48411 -0.7572 0.65856 0.70107 -0.93141 0.52928 0.23323 0.18857 0.38691 0.011489 -0.31937 0.011858 0.22944 0.17764 0.16868 0.14003 0.58647 -1.5447 -0.064425 -0.00064711 0.13606 -0.32695 0.10043 -1.546 -0.5476 0.21027 -0.67195 -0.1597 -0.68271 -0.22043 -0.87088 -0.16248 0.83086 -0.23045 0.19864 -0.051892 -0.52057 0.25434 -0.23759
by -0.20875 -0.1174 0.26478 -0.28339 0.19584 0.7446 -0.03887 0.028499 -0.44252 -0.30426 0.27133 -0.51907 0.52183 -0.76648 0.28043 -0.48344 -0.15626 -0.49705 -0.51024 -0.03652 0.20579 -0.6136 0.46388 0.73497 0.66813 -0.4443 -0.17603 -0.5478 -0.013521 0.16333 0.28148 0.054223 -0.19906 -0.1907 -0.43179 0.14781 0.27555 0.18571 -0.40776 -0.15415 -0.5885 -0.0085281 -0.14178 0.7061 0.54031 -0.43305 0.17497 -0.46208 -0.31372 -0.34039 -0.25128 0.68228 0.33576 1.5862 -0.39427 -2.9938 -0.29773 0.04213 1.9075 -0.072628 -0.092191 0.66133 0.13868 0.78774 0.69307 -0.22185 0.71705 1.1453 1.2153 0.14196 -0.79914 0.16965 -0.34532 -0.51742 -0.15648 0.18757 0.1694 -0.0082713 -1.4511 0.061983 1.1019 0.084411 -0.34148 0.49994 -1.1106 -0.13759 0.15377 -0.061006 -0.53826 -0.78941 -0.12566 -0.57381 -0.73484 0.54774 -0.28455 -0.24348 -0.27511 -0.33267 0.27878 -0.8705
has 0.093736 0.56152 0.48364 -0.45987 0.56067 -0.1694 0.018687 0.45529 0.065615 0.25181 -0.14251 0.10532 0.77865 0.1428 -0.08114 -0.069555 0.32433 0.019611 -0.15608 0.22235 0.35559 0.14713 0.19156 0.2803 0.27691 -0.2067 -0.11378 -0.48318 -0.64248 -0.35523 0.21939 1.2533 -0.21164 0.91811 0.31986 0.48367 0.15322 0.56109 -0.60692 -0.028075 -0.92199 -0.25583 0.66362 -0.49082 0.34757 -0.048103 0.57283 -0.62332 0.87508 -0.50079 -0.12316 -0.69096 0.10129 1.516 -0.174 -2.8902 -0.24541 -0.17934 1.1001 1.4198 0.49132 0.30282 0.077149 -0.097834 0.90586 -0.1615 0.55681 0.32817 0.49335 0.044815 0.57458 -0.32663 -0.29745 0.001807 0.24382 -0.51915 -0.14392 0.27921 -1.5964 0.37152 0.81129 -0.13488 -0.36534 -0.022346 -1.5091 -0.38727 0.30063 -0.37562 -0.18582 -0.39748 -0.10719 -0.12265 -0.66462 0.12112 -0.37281 0.60048 -0.42683 -0.81305 0.62397 0.73176
made -0.1982 -0.28405 0.14584 -0.31859 0.35192 -0.17536 0.51453 0.22287 -0.3827 -0.015509 0.33557 -0.3486 0.18489 0.50886 0.45933 -0.14549 0.42201 0.42403 -0.32605 0.058963 0.27354 0.096216 0.048534 0.21598 -0.030559 -0.12433 -0.3235 -0.15598 -0.097838 -0.50238 -0.14542 0.82071 -0.038955 -0.018687 0.19786 0.76392 0.086559 0.39519 -0.54875 0.02119 -0.67961 -0.028829 0.43082 -0.19367 0.062897 -0.30931 0.2046 -0.55095 0.045624 -0.94535 -0.11373 0.014583 0.44611 1.0166 -0.58189 -2.4982 -0.35776 -0.041392 1.3316 0.67553 -0.21153 0.73355 -0.32923 0.63869 0.46185 -0.76642 0.55702 0.64883 -0.22308 -0.56285 0.082082 -0.22448 0.16296 -0.38004 0.32773 0.34815 -0.41732 0.43754 -0.98953 0.24076 0.82662 0.094291 -0.076368 0.38624 -1.5678 -0.38339 0.20464 -0.11202 -0.34939 -0.50683 -0.07543 -0.51435 -0.51315 -0.048638 -0.6143 -0.39498 -0.80424 -0.53594 0.52015 0.064196
country -0.10935 0.57109 0.98214 -0.070305 0.27466 0.13901 -0.6725 0.49899 0.21726 0.57449 -0.43821 0.13026 0.25537 -0.062223 -0.52117 -0.19787 0.67209 -0.43658 -0.59177 0.063773 0.46073 0.66708 1.1919 -0.19182 -0.13415 -0.045557 0.052066 -0.37631 0.49671 0.13239 0.22187 0.12634 0.34833 0.096496 0.28304 0.26515 0.41935 0.27191 -0.78991 -0.57656 -0.97647 0.23095 0.48374 0.031668 0.33351 -0.027533 0.61034 -0.4384 0.0063261 -0.97056 -0.71083 -0.1317 -0.047665 1.1634 0.035339 -2.5317 -0.21682 0.082702 2.1301 0.59453 0.1801 0.30265 -0.12746 -0.6372 0.68515 0.51137 0.19605 0.22645 0.84234 -0.45817 0.30016 -0.28873 -0.64023 -0.034291 0.66036 -0.090798 -0.32405 0.28764 -0.9558 0.057511 1.1268 0.262 -0.23766 0.33101 -0.71519 0.037798 -0.40321 -0.11256 -0.37912 -0.43801 -0.14248 0.21925 -0.35928 -0.032169 -1.2293 0.20613 -0.20616 -0.5839 0.66622 0.22983
company 0.60631 -0.37365 -0.31874 0.030332 0.18667 -1.1275 0.18433 0.16875 -0.20626 0.0087478 0.86313 -0.25189 0.40721 -0.51964 -0.79094 -0.72724 1.0097 -0.11107 0.42026 0.16993 0.076219 -0.11326 0.23855 0.41726 -0.57761 -0.14314 -0.19051 0.33742 -0.49969 -0.28331 0.25436 1.5028 -0.50439 -0.68896 -0.42216 0.46763 0.34395 0.00036374 0.26785 -0.71838 0.73955 -0.1161 -0.48352 -0.21261 -0.11326 0.59394 -0.26361 -0.25681 0.28549 -0.85409 -0.24955 0.087372 0.3393 0.86974 -0.37837 -2.4103 -0.67233 -0.39496 2.2253 0.444 0.73806 -0.23085 0.0014253 0.63356 0.2074 -0.351 0.66789 0.74544 0.42554 0.40073 -0.14964 0.37755 -0.66066 -0.47359 0.39401 -0.34221 0.4854 -0.34195 -1.7212 0.41925 0.75561 -0.29337 -0.35955 1.059 -1.3379 -0.85894 0.074892 -0.5918 -0.1528 -0.44238 0.096469 -0.538 -0.049649 -0.47351 -0.27107 0.62337 -0.11412 -0.35592 1.0019 0.14789
player 0.12574 0.32509 1.113 -0.58335 -0.24936 0.48847 0.62065 -0.50677 -0.33586 -0.19294 0.25574 -0.7724 -0.077756 -0.37099 -0.21134 0.35468 0.57533 0.5766 -0.064627 0.66008 -0.70033 0.10916 -0.064823 0.25027 0.94743 -0.56639 0.049077 -0.99295 0.93037 0.23202 -0.98884 1.3504 -0.15805 -0.13901 0.71604 -0.59391 -1.1622 0.58432 -0.60995 -0.45829 0.36573 0.10676 1.0827 -0.3424 0.39105 0.46012 0.18979 -0.65604 0.37406 -0.85704 -0.1217 -0.031831 -0.34227 0.75294 0.54954 -2.1753 -0.65587 -0.21205 0.93107 1.3596 -0.20424 0.37793 -0.81579 0.62924 0.47697 -0.49153 0.62595 0.69333 -0.14426 0.19548 0.24125 -0.30904 0.33023 -0.078666 0.22328 -0.075844 -0.12853 -0.12649 0.33773 -0.081646 1.0142 -0.14592 -0.51295 -0.64572 -1.0111 -0.28843 -0.21588 -0.057799 0.61949 -0.2798 -0.78173 0.71514 -0.42827 -0.075749 0.051441 0.26557 -0.51365 -0.0084525 0.7465 -0.45434
goal 0.37463 -0.45783 0.43607 -0.18592 0.39146 0.13201 0.40696 -0.56897 -0.58788 0.37471 0.77892 -0.66205 -0.75479 -0.72995 0.23845 0.05514 -0.17449 0.38055 -0.74825 -0.38681 0.26459 0.29907 -0.028803 0.37746 0.36637 0.16978 -0.71765 0.061584 -0.20211 -0.87138 -1.1571 0.97784 0.37688 0.19406 0.39408 -1.1753 -0.5912 1.0843 -1.0697 -0.16679 0.44295 0.17436 0.34497 0.45835 -0.10064 0.015938 0.41949 -0.59228 -0.67753 -0.22583 0.35801 -0.42245 -1.438 1.2647 -0.034918 -2.887 -0.45084 -0.13241 0.96614 0.31888 -0.38168 -0.18362 -0.64692 -0.0081879 0.27132 -0.20845 -0.65913 0.32603 -0.55295 -0.5873 0.22557 0.025906 0.79134 -0.99571 0.49219 -0.49334 -1.0246 -0.6555 -0.62772 0.47167 0.16071 0.96678 -0.67766 -0.52509 -1.3783 -0.22734 0.014678 0.73887 -0.069027 -0.081978 -0.97551 -0.075598 -0.48707 0.2414 -1.6559 -0.71971 0.20561 0.29355 -0.21229 -0.36397
served -0.63311 -0.30848 -0.46093 -0.034834 1.2405 0.2212 0.7941 0.12497 -0.52377 -0.15122 -0.18496 -0.80759 0.29253 1.3098 0.17999 -0.96462 0.79588 -0.29288 -1.2712 -0.37793 0.25734 0.11825 0.52761 -0.33747 -0.32948 -0.30809 -0.4121 -0.48857 0.59079 0.095084 0.016954 1.0594 0.11806 -0.74208 -0.40903 0.85843 -0.45318 0.060144 0.45601 -0.32866 -0.41589 -0.75796 0.37041 -0.70268 1.3123 0.39733 0.48685 -0.74913 0.2913 -0.43483 -0.32059 -0.73499 0.092231 0.71243 -0.73544 -1.6934 0.23327 -0.5294 1.0739 0.67814 -0.20071 0.19644 0.39907 0.12931 0.80265 -1.0065 0.018882 0.050605 0.45242 1.0865 0.054383 0.061976 0.40209 0.19396 0.027093 0.03731 -0.33656 0.28326 -0.27159 -0.37306 0.22111 -0.10588 -0.011145 0.38248 -0.76871 -0.15005 -0.026111 0.0011881 0.37918 -0.95507 -0.14033 -0.55129 0.006733 0.45744 -0.46077 -0.26133 0.19806 0.050448 0.066994 0.41595
published -0.61139 -0.42854 -0.5855 0.20193 0.9456 0.50673 0.70259 -0.14638 -0.24579 -0.32914 0.46261 -0.3478 0.17518 0.011947 -0.086793 0.76731 0.99763 -0.22985 -0.44657 -0.25766 0.45675 -0.38111 -0.091125 0.58799 0.43576 -0.74125 0.20007 -0.32504 -0.16916 1.0562 0.041963 0.1051 -0.55131 -0.25676 -0.7569 0.87125 -0.33589 0.37572 -0.93259 -0.41725 -0.79743 0.60062 -0.89959 0.059795 -0.448 -0.8645 0.16598 -1.134 0.22332 0.41088 0.92 0.54754 0.68282 0.55738 -0.5009 -2.1308 -0.065491 0.029405 0.86093 0.41744 0.19348 0.97992 -0.94843 -0.7361 1.2374 -0.22332 -0.10371 0.82139 0.85524 0.1096 0.043327 1.3079 0.19972 0.039065 -0.62535 0.38245 0.27241 0.37682 -1.9542 -0.21872 0.10508 0.015435 -0.27597 0.077442 -0.86306 -0.74398 0.14485 -1.0848 -0.33669 0.29885 0.11109 -0.084882 0.49568 0.48629 -0.23831 0.59448 -0.45642 -0.94406 0.13352 0.052578
song -0.20181 -0.071811 0.72526 -0.50313 1.2585 0.65024 0.18399 -0.084942 0.42652 -0.017524 0.2819 0.15924 -0.070275 0.22617 0.14699 -0.15519 0.68584 -0.35722 0.034995 0.49866 1.2094 -0.41853 0.056533 0.2161 -0.16367 0.81575 -0.11273 -0.24456 1.3419 0.20132 -0.77685 0.63483 0.88386 0.92982 -0.14763 0.044292 0.26434 0.3362 -0.36969 -1.5062 0.19298 0.68243 -0.20024 0.99566 0.37843 -0.30085 -0.80727 -0.85098 0.3896 -0.80589 -0.069258 0.11408 0.67753 0.45479 -0.30921 -2.7645 -0.14802 0.55145 0.47024 0.92589 0.49974 0.98762 -0.4761 -0.07365 0.9706 -0.23982 0.79655 0.31308 -0.051331 -0.64392 -0.16087 0.74622 -0.022713 0.29361 0.24785 0.98513 -0.11774 -0.17811 0.33659 -0.82853 -0.139 -0.4679 0.18255 -0.03011 -1.7041 -0.079307 -0.72092 -1.1939 0.20224 0.92653 -0.40786 0.26387 -0.51089 0.58869 0.094796 -0.32498 -1.4762 -0.52873 -0.056057 0.042455
scored 0.20988 -0.47655 0.28336 -0.81891 0.69712 0.60576 0.70267 -0.37126 -1.2579 -0.15087 0.8627 -1.0148 -1.1333 -0.35162 0.59548 0.18641 -0.42956 0.87956 -0.79354 -0.11465 0.93346 0.25379 0.37372 0.58551 0.64899 -0.41579 -0.68475 0.33655 0.0084698 -0.52282 -0.88602 1.1002 0.21214 0.6451 0.72751 -0.92499 -0.16333 1.3088 -1.5823 0.51023 0.25315 -0.33866 0.33079 0.0080323 0.34725 0.13952 0.38958 -0.98305 0.46568 -0.089045 -0.37794 -0.049653 -1.1755 0.73942 -0.36438 -2.4471 -0.75071 0.0901 -0.32032 1.4176 -0.69838 0.069092 -0.779 0.55792 -0.374 0.097131 0.098289 0.50688 -0.8024 0.45312 -0.43216 0.19852 0.66294 -0.16279 0.75247 0.055137 -1.4578 -0.32155 -0.40475 0.22335 0.28337 0.75549 -0.53379 -0.52686 -0.48718 -0.5884 0.14542 0.29295 -0.1745 0.082937 -0.90597 -0.27768 -0.81742 -0.031541 -1.8709 -0.4819 0.042397 0.050949 -0.41251 -0.4467
lawyer 0.35732 -0.62995 -0.42629 -0.30804 0.10198 0.39621 -0.010956 -0.41009 -0.6538 0.15322 -0.11027 -0.24405 -0.16205 -0.10533 -0.72101 -0.58995 0.18692 -0.4328 -0.7796 0.53632 0.15043 0.30958 0.48051 -0.13196 0.10641 0.097321 0.12076 -1.4796 -0.20624 0.34627 0.31061 0.83241 0.1118 -0.0072984 -0.61353 -0.093742 -0.15163 0.35221 0.93905 0.12002 -0.4852 -0.10457 0.67429 -0.73877 -0.27031 -1.0385 -0.36606 -0.58402 0.15979 -0.013703 0.88269 -0.81227 0.67153 0.49514 -0.18025 -0.92657 -1.0446 -0.23578 1.2594 0.65004 0.044537 -0.25197 0.074836 -0.56637 0.95957 -1.0725 0.95209 1.116 -0.57097 0.60866 -0.26226 0.32286 -0.1513 -0.63239 0.35556 -0.39295 0.13156 -0.29489 -0.49436 -0.24595 0.93257 0.012559 0.49992 -0.29784 -0.94073 -0.70739 -0.14737 0.72665 0.26456 -0.93877 0.70269 -0.84055 0.53197 0.11361 0.87732 0.88564 0.0030293 -0.2214 -0.28501 -0.053822
ran 0.36089 -0.40395 -0.42451 -0.92885 0.89198 0.45524 0.35267 0.42628 -0.23713 -0.29896 0.84418 0.51924 -0.043459 -0.0021729 -0.016456 -0.28262 0.14752 0.31658 -0.50745 -0.66788 0.90956 0.8018 0.41332 -0.4041 0.20085 -0.38827 -0.9126 -0.016028 0.33943 0.37793 -0.036812 0.88399 0.4388 0.012869 -0.014424 0.28959 -0.45874 0.0098843 0.0099231 0.72204 -0.39008 -0.30757 -0.30263 -0.29049 0.053305 -0.15235 0.069492 -0.54399 0.53463 -0.15628 -0.30118 0.42941 0.46548 1.1683 0.11558 -2.1999 -0.3887 0.51742 0.96599 0.3788 -0.14952 0.15638 -0.13305 0.47753 0.67341 0.11201 0.2955 -0.28622 -0.087691 1.109 -0.21604 0.54342 0.00074677 0.033453 -0.001263 0.40098 -0.12498 0.45739 -0.53136 -0.31842 0.35764 0.31026 -0.24211 -0.0079753 -0.74285 -0.7169 0.0050483 -0.29956 -0.17766 -0.037024 0.085178 -0.069376 -0.04486 0.5249 -0.59645 0.077842 0.040438 0.66427 0.62324 0.2743
debate -0.36728 0.49449 0.32699 0.10797 -0.18094 0.28883 0.094495 -0.11462 0.12157 -0.66827 -0.87892 0.086384 -0.50173 -0.42991 -0.2034 -0.12931 -0.52719 0.10505 -0.23873 -0.67646 0.074543 -0.34063 0.30936 -0.46335 0.13677 -0.50425 -0.14975 0.14285 -0.27246 0.32606 -0.48725 0.17579 0.24047 0.3455 -0.48593 0.18326 -0.2094 -0.35395 -0.28409 0.65738 -1.0315 -1.1213 0.1978 -0.18878 -0.73287 -0.92867 0.20393 -0.16286 -0.18783 -0.78652 0.69363 -0.093019 -0.22811 0.93141 0.092479 -2.3105 0.39527 -0.69051 1.2136 0.35094 -0.31763 0.52519 0.50114 -0.78612 1.3401 0.27903 0.11821 0.1243 -0.22659 -0.2568 0.74261 -0.142 -0.05058 0.067415 -1.0766 -0.11403 -0.23308 -0.53717 -1.0133 -0.28334 -0.10207 -0.64673 0.61111 -0.19561 -1.3662 -0.26674 -0.26718 0.61069 0.12682 -0.96512 0.39323 0.16487 -0.69484 0.93803 -0.034388 0.32193 0.29276 0.23468 0.88329 0.54736
prepared -0.9551 0.4101 -0.51756 0.14373 -0.47445 0.15538 0.24076 0.41547 -0.17455 0.069485 0.18171 -0.028533 0.12961 0.13791 -0.59727 -0.077256 0.27512 0.041709 -0.86237 -0.6514 -0.20662 -0.29962 -0.031193 -0.50328 -1.0339 0.013604 -0.52674 0.20844 0.10502 0.13543 -0.3302 0.34032 -0.32837 0.088186 0.5427 0.56625 0.05115 -0.26544 -0.016306 -0.27014 -0.62294 -0.24826 0.27868 -0.55812 0.32684 -0.15979 -0.42339 -0.29348 -0.26867 -1.1522 0.44683 -0.06314 0.62654 0.61011 -0.64309 -1.6056 0.19173 -0.17951 1.2546 0.20791 -0.082095 0.85625 -0.38633 -0.67943 0.74789 -0.62827 -0.12116 1.0226 -0.38677 -0.56378 0.14105 -0.31645 -0.27332 -0.22738 0.073734 0.6372 -0.38505 0.20623 -0.25915 0.12836 0.46361 -0.18145 -0.91241 0.38124 -1.0206 -0.42563 0.4665 0.21696 -0.44103 -0.40245 0.11783 -0.22385 -0.2409 -0.33601 -0.5667 0.039844 0.16839 -0.16742 0.31992 0.24894
novel -0.083753 -0.00044629 -0.02672 0.21134 0.79703 0.39511 0.37683 -0.83091 -0.13034 -0.2765 -0.1492 0.043615 -0.58856 -0.14052 -0.079237 0.50447 0.67156 0.44637 0.42365 0.36913 0.89473 -0.70999 -0.0098859 0.10568 1.1115 0.20099 -0.0095316 -0.88247 -0.68051 0.46705 -0.50036 0.14909 -0.19912 -0.72812 -0.0056019 0.18476 0.1909 -0.060153 -0.097142 -0.18612 -0.71767 0.73554 -0.57947 -0.16699 0.60968 0.12587 -0.3198 -1.0117 0.24737 0.79728 0.51768 0.30706 1.1664 0.94425 -0.31247 -2.3786 0.12859 0.48864 0.033959 -0.26031 0.328 1.661 -0.054018 -0.71444 1.6478 -0.7695 0.083594 0.44942 -0.1193 -0.2624 0.078644 0.61429 -0.039269 0.52563 -0.40808 0.34891 0.036128 0.17859 -0.94851 -0.13328 -0.74286 0.81733 -0.43868 0.11642 -1.3682 0.25137 -0.53564 -1.128 -0.25151 -0.038305 0.06599 -0.097739 0.40888 0.20567 0.1094 0.26937 -0.15855 -0.84614 -0.62348 0.28438
doctor 0.043244 -0.47529 0.15808 0.20413 -0.15383 0.72284 0.26145 0.20892 -0.3147 -0.070307 -0.43367 0.053109 0.73635 0.98111 0.23535 -0.10449 0.50258 -0.033356 -0.35537 0.64549 -0.37103 -0.10052 -0.76929 -0.16957 -0.15648 0.53548 0.35146 -1.5126 0.050984 0.24445 -0.35688 0.43968 -0.62985 0.32891 -0.53009 0.49832 -1.2061 0.27797 0.42734 0.095773 -0.43527 0.93561 0.36039 -0.83114 0.12966 -0.1363 -0.58124 0.092946 -0.014708 0.32562 0.41204 0.1451 0.49803 0.86926 -0.18033 -1.6227 -0.64565 0.17504 0.73849 0.39156 0.83135 0.51308 0.12999 -0.21288 0.68456 0.056297 0.090792 0.28032 -0.12233 0.60761 -0.57913 -0.024127 -0.063252 0.40747 0.10775 0.57977 0.092789 -0.15588 -0.36494 -0.46632 0.37553 0.164 -0.75138 -0.10833 -2.1363 -0.11658 0.23157 0.24425 -0.36352 -0.34928 0.60001 -0.10529 0.78614 0.45707 -0.1712 0.6362 0.68622 -0.28397 -0.29773 -0.81148
singer 0.085597 0.087591 0.1607 -0.27948 0.68711 0.55896 -0.048218 -0.45024 -0.20433 0.34389 -0.28123 -0.21604 -0.37292 0.13592 -0.090096 -0.7652 0.82438 -0.83376 -0.11073 1.4222 0.00055641 -0.05912 0.54674 0.039751 0.44284 0.46411 0.50449 -1.3148 1.1134 0.19702 -0.34039 0.48781 0.63564 1.0503 -0.010255 -0.42861 0.92383 0.5798 0.1924 -0.69471 0.45618 0.63859 0.51035 0.8619 0.33803 -0.21545 -1.01 -0.6798 0.44079 -0.5924 -0.24407 0.015507 0.50922 0.48767 0.059257 -2.1724 -1.5229 0.38112 -0.0069243 1.006 0.915 0.65314 -0.12327 -0.3872 0.26968 -0.25429 1.4497 0.44667 -0.0074165 -0.29059 -0.51954 0.78449 -0.92799 0.63175 0.38197 0.16479 0.24979 -0.16601 0.77203 -1.1501 0.03779 -0.33731 1.1042 0.17465 -0.92291 -0.51794 0.19801 -0.38774 -0.29837 -0.046549 0.046008 -0.02405 -0.34344 0.12028 -0.013304 0.5283 -1.2073 -0.23646 0.0064679 -0.25938
soldier -0.53922 0.25323 0.17799 0.23425 -0.088386 0.57451 0.269 -0.60033 -0.012116 0.56899 -0.022433 0.42458 1.0526 0.18799 -0.10026 0.53352 0.49121 -1.1227 -0.96267 0.65757 1.0256 -0.5386 -0.031752 0.092206 0.34513 0.33139 -0.6415 -0.47844 1.0537 0.4994 -0.066188 0.25951 -0.038343 -0.48014 0.86336 -0.99536 -0.99073 0.27576 1.0911 0.14993 0.032966 0.46014 0.92529 0.066586 0.47595 0.047829 -0.66572 0.14945 -0.49289 -0.4743 0.25885 -0.41462 0.15138 1.7172 -0.22265 -0.9069 -0.52745 -0.8231 1.1993 0.97082 0.84193 1.0315 -0.010147 0.14828 0.41456 -0.36044 0.15684 0.0063714 -0.5527 0.8297 0.24521 -0.79453 -0.069585 -0.073939 0.52445 0.9656 0.57889 0.42552 -0.74588 -0.41926 0.53603 0.4476 0.4082 0.16003 -0.22908 -0.56288 0.050962 -0.19647 0.24221 -0.35954 0.26074 -0.60652 0.2826 0.54026 -0.4537 0.26567 0.61436 -0.213 -0.31101 -0.083892
politician -0.75466 0.030305 0.31673 -0.60496 0.6403 0.21177 0.42518 -1.6479 -0.28727 0.28935 -0.74533 -0.33712 0.37352 -0.0063967 -0.1199 0.12444 0.22013 -0.73899 -0.76447 0.99242 0.43396 0.8394 1.0247 -0.96401 -0.40509 -0.43694 -0.28508 -0.89923 0.98381 0.035204 0.00029891 1.2504 0.37871 -0.76635 0.028048 -0.53639 -0.38266 -0.123 0.30655 0.043342 -0.70034 0.017955 1.351 -0.84734 -0.047904 -0.70888 0.34884 -1.0354 -0.15984 0.33958 -0.13379 -0.40459 1.1919 0.97256 -0.59725 -1.0522 -0.94269 0.24762 0.79222 0.10456 0.40715 -0.27064 -0.6059 0.15591 1.149 -0.28067 0.60138 -0.079868 0.45193 0.68563 0.24966 0.056469 -0.42184 -0.14544 -0.59225 -0.18174 -0.0086669 -0.088771 -0.21687 -0.91147 -0.063476 -0.055538 0.62625 -0.1986 -0.02801 -1.0051 -0.083847 0.64507 0.43971 -1.7973 0.77872 -0.79416 0.10335 0.67971 -0.52654 0.85328 0.28516 -0.53439 0.020424 -0.73276
engaged -0.14017 -0.23886 -1.1225 0.81009 0.12468 0.0084618 0.20674 -0.038358 0.05666 -0.047013 0.22293 -0.28685 0.65025 0.20744 -0.39553 -0.61084 -0.3489 -0.30006 -0.32907 0.1738 0.47879 0.14279 0.7588 -0.48129 -0.38711 -0.069252 -0.42255 -0.029639 0.15708 0.36132 -0.62128 0.40559 0.37108 -0.51864 0.62787 -0.5096 -0.085803 -0.55597 0.32956 0.61577 -0.56125 0.28859 0.3537 0.21861 0.055061 -0.39136 -0.33906 0.20874 0.4532 -0.77192 -0.055762 -0.051276 0.23243 0.59782 -0.060593 -1.0362 0.34006 -1.056 0.94912 0.22381 -0.037895 0.46496 -0.35246 -0.089369 0.67911 -0.3393 0.7886 0.26379 0.43525 0.74971 0.33998 -0.79073 -0.31091 0.052124 -0.40441 -0.32429 -0.21293 0.12427 -1.1536 -0.092543 0.56232 0.62504 -0.07146 0.88704 -1.2137 -0.34505 -0.44575 0.17914 -0.32593 -0.96524 -0.39662 -0.20532 0.075836 -0.23122 0.29496 0.01986 -0.727 -0.25131 0.29185 0.017426
cook -1.4442 -0.087382 -0.24599 -0.21514 -0.4058 0.33343 0.68608 0.29825 -0.23802 -0.29708 0.13444 -0.072527 -0.18819 0.65551 -0.12523 -0.78857 0.1019 -0.098722 -0.87772 0.21261 -0.31162 0.32272 0.90733 -1.1394 0.22802 0.86747 -0.30832 -0.31643 -0.48158 0.19592 -0.95703 0.89766 -0.066392 -0.33865 -0.37437 0.44779 0.36517 0.40373 0.36667 -0.62007 -0.83429 -1.0148 -0.5856 -0.77543 0.51522 0.10449 -0.49677 -1.0819 0.56634 -0.58621 0.13957 -0.34166 0.024834 0.50716 -0.66831 -1.831 -0.13556 0.13733 0.44621 0.54639 0.39271 0.34983 0.27482 -0.07225 0.96468 -0.49167 0.3555 0.56326 -0.052242 0.030785 -0.45401 0.72937 0.041111 0.36383 0.19922 0.16084 -0.55187 -0.31779 0.51482 0.071391 0.41474 -0.15886 -0.12191 0.057212 0.10989 -0.75827 -0.065695 0.68315 0.066818 -0.039355 -0.36956 0.23434 0.28969 -0.44798 -0.89293 0.061596 0.26515 -0.25935 -0.24152 0.25402
painting 0.70057 0.95806 -1.1077 0.76175 1.1021 0.038493 0.034481 -0.20694 0.079248 0.22216 0.16931 -0.15143 0.29096 -0.23989 -0.20252 0.40326 0.24881 0.31772 0.68654 -0.028725 -0.59672 -0.068751 0.30985 -0.63724 0.56571 -0.72503 -0.42752 -0.53117 -0.34309 -0.94679 -1.0893 -0.31616 -0.3758 0.28086 -0.56834 0.025591 -0.25661 -0.42064 -0.0042422 -0.68587 -0.17327 -0.71445 0.054065 0.24171 -0.57526 -0.33271 -0.070607 -0.18505 0.19215 -0.4634 0.18966 0.35746 0.37624 0.96175 -1.1222 -1.7488 -0.48003 -0.21449 0.53309 0.020642 0.62781 2.0444 -0.19424 0.261 0.55546 -0.085145 0.7699 -0.22328 -0.66298 -0.089711 -0.063074 0.60249 0.47616 0.40084 0.1773 -0.23196 0.051514 0.54439 -0.40658 -0.22168 -0.030674 0.13756 -0.19614 -0.13778 -0.70033 -0.25387 -0.60699 -0.70358 0.38218 -0.88503 0.21176 -1.5133 1.2362 0.19475 -0.1789 -0.53224 -1.2119 -0.80953 0.071926 -0.81157
publisher -0.056504 -0.66872 -0.33651 -0.10154 1.2664 0.32571 0.24443 -0.90948 0.096117 -0.32758 0.46793 -0.56473 0.040005 -0.86401 -0.82027 -0.0025342 0.6563 -0.41941 -0.28702 0.3562 0.02351 0.27412 -0.3095 0.23099 0.79746 -0.18329 0.40602 -0.52868 -0.16673 0.54727 0.36206 0.98564 -0.52264 -0.50094 -0.61851 0.33877 -0.12586 0.0095477 0.07713 -0.3797 -0.37611 0.71953 -0.56789 -0.19281 -0.53684 -0.093614 -0.34536 -0.6573 0.36934 0.26466 0.59997 0.18451 0.52943 -0.39581 0.33493 -1.4055 -0.57196 0.34593 1.1552 0.021271 0.9859 -0.1074 -0.62339 -0.30346 1.0431 -0.93982 1.0215 1.176 0.60246 0.21486 -0.041185 0.85326 -0.34287 -0.047272 -0.77717 -0.29112 0.084178 -0.10617 -1.0464 -0.17233 0.1773 -0.21221 -0.35844 0.43236 0.26568 -1.0374 -0.13321 -0.57539 0.18294 -0.61237 0.32514 0.2414 1.1302 0.03843 -0.51238 0.42528 0.48861 -0.53346 0.39545 0.16064
painted -0.46253 0.84115 -0.86775 0.0068706 0.96695 0.32512 -0.37469 0.033634 -0.31022 -0.1829 0.042643 -0.34153 0.8107 0.50635 0.19353 0.48412 0.44313 0.19478 0.24442 -0.76917 0.020351 -0.21413 0.24491 -0.27001 0.32765 -0.96287 -0.83371 0.020602 -0.63938 -0.67999 0.54723 -0.4169 -0.12135 0.4306 -0.11775 0.46388 -0.11567 -0.10097 0.53579 -0.014525 0.080293 -1.0948 0.13641 0.31617 -0.068363 -0.1508 0.0033782 0.37853 -0.033546 -0.42802 0.03548 0.056177 0.11854 1.0372 -0.83397 -1.5585 -0.24636 0.342 0.15508 -0.18863 0.041298 1.8599 -0.20808 0.20231 0.55923 -0.44369 0.63802 0.13231 -0.9466 -0.34882 0.33362 0.54876 0.37694 -0.18221 0.66112 -0.25123 0.526 0.82965 0.02445 -0.38274 0.11808 -0.23336 -0.28502 0.4148 -0.35353 -1.0857 -0.36341 -0.73429 0.044324 -0.33599 0.34311 -0.98735 0.58406 -0.034007 -0.16189 -0.44508 -1.8092 -0.38773 0.017808 -0.80663
marathon 0.65501 0.25885 -0.069534 0.20481 0.44678 -0.26294 0.76051 1.2255 -1.1415 -0.27873 0.43723 0.38367 -0.027759 -0.19359 -0.9173 -0.18715 -0.010361 0.079822 0.098134 -0.77052 0.34078 0.011359 0.35451 0.69897 0.099192 0.010963 -0.6661 -0.49684 0.50474 -0.56533 -1.5487 -0.61362 0.18964 0.5478 0.32141 -0.189 -0.44951 0.54895 0.091901 0.56986 -0.092487 0.042097 0.12447 -0.31439 -0.48301 -0.25193 0.44416 -1.2406 0.4722 0.20141 -0.63633 -0.24251 0.65866 0.79254 -0.072955 -1.5932 -0.31117 0.8525 0.60576 0.27575 -0.55626 -0.11712 -0.11249 -0.5386 0.38368 0.4583 -0.16852 0.16408 -0.051871 0.0008759 -0.72492 0.18911 -0.26421 0.8071 0.0088322 0.054057 0.24136 -0.86875 -0.43529 -0.84061 0.24392 -0.016034 0.22561 0.90862 -0.60466 0.30099 -0.81129 0.63319 0.73657 -0.012639 0.61491 0.32771 0.0080324 0.0018519 0.039989 0.1148 0.32683 0.62847 0.71592 0.57857
athlete 1.062 0.63725 0.1721 -0.13294 -0.67621 0.16378 0.056488 -0.09189 -0.50579 0.42447 -0.19986 -0.13481 0.72268 -0.34358 -0.77404 0.34925 0.32602 0.67368 -0.55748 0.24577 -0.78972 0.63363 -0.0011514 0.36792 0.17134 0.13863 -0.33292 -0.91663 0.58413 -0.15818 -0.58458 0.83439 0.091777 -0.16025 0.91233 -0.29905 -1.0966 1.0568 -0.90113 0.67082 -0.44734 0.70311 0.45349 -0.89287 0.12685 0.33069 0.49536 -0.8648 -0.049264 -0.63279 -0.075513 -0.15299 0.69438 0.58336 0.24578 -1.1802 -0.7437 0.4576 1.0179 0.063751 0.058371 0.21495 -0.25839 0.51887 0.72421 -0.068324 0.72857 -0.0064847 0.21454 0.49259 0.45955 -0.5549 -0.23734 1.0109 0.8054 0.7775 0.84369 -0.70247 0.49974 -1.0392 -0.013763 -0.15463 -0.12587 -0.52857 -0.38153 0.010194 0.11359 0.22569 0.40391 -0.87031 -0.1564 0.52011 0.2796 -0.036223 0.49523 0.54805 -0.79671 -0.28604 0.29931 -0.32554
painter 0.26155 0.31792 -0.69717 0.55264 0.51577 0.018605 0.16449 -1.4549 -0.39321 -0.1197 -0.32911 -0.97027 0.20142 -0.4246 -0.029231 0.43189 0.60364 -0.47166 -0.2083 0.43933 -0.62646 0.19492 0.60867 -0.31045 0.86335 -0.82587 -0.030528 -1.1471 -0.16982 -0.74443 -1.5675 -0.28863 -0.077646 0.055867 -0.31397 -0.14294 -0.091866 -0.20085 0.50391 -0.55637 0.1256 0.1218 0.41868 -0.16815 -0.030834 -0.84395 -0.48289 -0.74809 0.36455 0.20626 -0.12224 -0.38197 0.2714 0.74745 -0.60688 -0.98014 -1.346 -0.26517 -0.093413 0.37567 0.9493 1.7438 -0.58215 0.112 0.57378 -0.60002 0.73011 -0.061293 -0.62627 -0.047569 -0.21789 0.36097 -0.014957 0.24594 0.24905 -0.5322 0.34064 0.39176 0.52771 -0.64793 -0.06481 0.39903 0.0076876 0.14018 -0.14842 -0.42945 -0.43259 -0.66924 0.26293 -1.648 0.51807 -1.0256 1.1958 0.10411 -0.22088 0.29234 -0.98938 -1.2787 -0.40291 -1.5091
sued 1.1127 -0.78059 -0.66563 0.14369 0.48057 0.214 -0.14649 -0.0042731 0.27037 -0.12371 0.23232 -0.075324 0.18286 -0.59135 -0.56109 -0.75466 0.75723 0.15001 -0.82571 0.58319 0.19986 0.13517 0.31022 0.66669 0.17735 0.16364 -0.061015 -0.55319 -0.11495 0.15717 1.5443 0.99807 0.12773 0.20481 -0.18667 -0.094208 -0.16531 -0.052281 0.30803 0.0070352 -0.54309 0.41412 -0.63521 -0.54435 -0.28886 0.37183 -0.057065 0.068194 0.27832 -0.235 0.11029 -0.086577 0.14563 0.1024 -0.16813 -0.49692 -0.18537 -0.11827 0.90592 0.34162 0.2603 -0.27479 -0.074169 0.11598 0.55373 -0.62722 0.49133 1.116 -0.26306 0.19864 -0.51119 0.70448 -0.64286 0.26692 -0.53891 0.012364 0.047992 -0.17577 -1.0839 0.53643 0.49244 -0.45645 0.054267 0.20461 -0.69638 -0.55547 -0.29082 0.29925 -0.03055 -0.02355 0.13615 -1.1055 -0.24372 -0.45191 0.57797 0.58153 0.13312 0.83954 0.76789 -0.79409
sung -0.31696 0.63733 0.42688 0.32477 0.50891 0.77693 -0.080444 -0.033247 -0.019099 0.20933 0.096743 0.80358 0.3722 0.75666 0.56031 -0.71666 0.39733 -0.069199 -0.56704 -0.48639 0.88715 -0.0087719 -0.085956 0.29056 -0.48877 0.33482 -0.95186 0.32987 0.39736 0.57764 -0.43582 0.13739 0.45363 0.39338 -0.13513 -0.33166 0.69327 0.45886 -1.0584 -1.0178 0.0070403 0.4 -0.17659 0.89934 1.0557 -0.47975 -0.093 -0.62056 0.11166 -0.47046 -0.22893 -0.43293 1.0474 -0.42028 0.22 -1.2815 -0.85887 1.0469 -0.22726 0.13745 0.37229 0.43613 -0.1714 -0.37777 -0.62388 -0.33041 1.0396 1.0449 0.41653 0.24961 -0.11103 0.57883 -0.27742 -0.69849 0.16466 0.25528 -0.56909 -0.037954 0.56948 -0.84933 0.41473 -0.93663 0.33002 -0.033915 -1.973 0.43797 -0.64383 -0.015991 0.89872 0.2806 -0.38086 0.24474 -0.39135 0.55042 -0.18775 -0.11566 -0.86801 -1.1522 -0.42101 0.11367
meal -0.13263 0.81943 -0.30256 -0.21369 -0.7834 0.34154 0.78166 0.94204 -0.14568 -0.18969 -0.45994 -0.069907 0.2727 0.4705 0.42208 -0.10874 -0.65364 -0.28639 -0.16174 0.029712 -0.184 -0.35529 -0.25133 -0.84822 0.22622 0.55674 -0.65712 0.12584 -0.6252 -0.37738 -0.67035 0.38987 0.53985 -0.7414 0.55861 0.92621 -0.31782 0.47522 0.10552 -1.1257 0.5009 -0.31618 0.41873 -0.40645 0.65504 0.22728 -1.3359 -0.69926 -0.091451 -0.8312 0.092576 -0.15846 0.6576 0.4802 -0.92319 -0.65235 -0.48638 0.063567 1.6864 -0.1341 0.065646 0.57589 0.69608 -0.91848 0.32216 -0.60561 -0.093955 -0.79545 0.11129 -0.93731 -0.67853 -0.23174 0.49531 0.62208 -0.41525 1.1077 -0.85188 -0.4022 0.14186 0.70354 -0.45562 -0.070565 -0.6458 -0.047604 -0.72793 -0.3084 -0.18131 0.0025873 -0.44768 -0.050599 0.27307 -0.12748 0.27674 -0.31937 -1.1715 -1.1715 0.83977 -0.20194 0.52024 0.64747
diagnosis 0.14158 0.070057 0.31235 0.51924 -0.99471 -0.11319 0.75197 0.013496 0.30446 0.38708 -0.32716 -0.020875 0.22965 0.3383 1.6838 0.095639 0.12962 -0.62729 0.27979 0.11169 -0.78223 -0.50894 -0.70942 0.24164 -0.14286 0.39086 0.88852 -0.49239 -0.59222 -0.20035 0.12488 0.25331 -0.025787 0.50409 0.13725 0.30185 -0.28338 0.13884 -0.41161 0.089867 -0.24541 1.0019 -0.21495 -0.57089 -0.74441 0.1319 0.5843 -0.25282 -0.27801 -0.61179 0.88901 -0.3484 0.061576 0.52433 -0.0074855 -0.80805 0.44087 -0.35501 0.14259 0.13349 0.029817 0.66917 0.68568 -0.057637 0.6957 0.35946 -0.8473 -0.32946 -0.12286 -0.22586 -0.90097 0.60905 -0.095085 0.16962 0.60417 -0.21094 -0.67001 -0.22274 -0.45043 -1.1681 0.46477 0.47058 -0.65729 -0.050838 -2.1511 0.31998 0.66819 0.21745 -1.2394 0.53532 0.19161 -0.056415 0.89996 0.64807 0.70839 0.47239 0.43286 -0.52434 -0.03386 -0.18607
